1.424312629807797936e-01 4.655231555742447153e-02 -5.370724452104218977e-02 8.991320017532535014e-02 -4.379274399095740844e-02 -1.387639426514035990e-01 -7.659098183078431356e-03 -9.916693779829868077e-03 5.531528184515002028e-02 -1.879570910090549649e-02
1.448603783223332553e-01 4.468937109122925883e-02 -5.405443267081930236e-02 9.372033472828308898e-02 -4.731893140236751588e-02 -1.443515907850544400e-01 -1.183278632130214426e-02 -1.050822533217124835e-02 5.346022174963823564e-02 -1.393000280669504098e-02
1.467293113638343249e-01 4.739200753586750997e-02 -5.512008465922928896e-02 9.226966010822099107e-02 -4.684654772565705061e-02 -1.388236735687949086e-01 -1.060143742161490099e-02 -9.387734617154811639e-03 5.089713745764039982e-02 -1.848350488925803309e-02
1.395886840625527037e-01 4.714275878804244369e-02 -5.517337495959313137e-02 9.014870783404285715e-02 -4.784139397998282695e-02 -1.390465288113113818e-01 -5.914013068481142714e-03 -1.266508381890299115e-02 5.511613502528595748e-02 -1.581192129812845210e-02
1.405382069472443374e-01 4.377074143169368964e-02 -5.275856632248597522e-02 8.506662306164894383e-02 -4.136162482988985090e-02 -1.385165050858886138e-01 -9.931144684966948868e-03 -1.754516081110185297e-02 4.883293774938147341e-02 -1.899301657973704108e-02
1.426450956456853381e-01 4.378643702832347301e-02 -4.985113990116638027e-02 8.548481645283652341e-02 -4.594052442339804226e-02 -1.436097886032199344e-01 -5.503887041051393030e-03 -1.630150776225261500e-02 5.034176196870273484e-02 -2.018586836914722585e-02
1.385328237779616112e-01 4.050417330534329674e-02 -5.317158238710591178e-02 8.584619785884239906e-02 -4.606346836754585811e-02 -1.415356320754604103e-01 -3.825037997225971820e-03 -1.786341102971976055e-02 5.405810331512774652e-02 -2.166914021022363704e-02
1.467077225916406380e-01 4.408693391017727559e-02 -4.996726739985526272e-02 9.051282354280683340e-02 -4.063665619036353066e-02 -1.448310058595266570e-01 -9.206900669941264423e-03 -1.763245817551869696e-02 4.864005621536107021e-02 -2.144284709962083341e-02
1.401229597354462231e-01 4.354305183884695646e-02 -5.909340331827073189e-02 9.138908953905663934e-02 -4.236327744228075148e-02 -1.425689888726754395e-01 -6.802489761038340958e-03 -1.789501868006595706e-02 5.143811919570149410e-02 -1.333716231340106514e-02
1.401288174660196839e-01 4.607452569333710113e-02 -5.841689965771465487e-02 9.162764038654208631e-02 -4.513523105487442233e-02 -1.433909701619987265e-01 -6.169840947604505500e-03 -1.863334832577540762e-02 5.396805453231334065e-02 -2.258316952723778831e-02
1.437212933094688672e-01 4.210050162562187920e-02 -5.238293806053267304e-02 9.408625379653091925e-02 -4.554176054914683969e-02 -1.394613104378917556e-01 -6.114550982986959905e-03 -1.311190472974182661e-02 4.790947056654578512e-02 -1.310263417399334593e-02
1.414143817276827808e-01 4.786450861841156507e-02 -5.274008552858358567e-02 8.743873785390764153e-02 -3.989131378732176797e-02 -1.412578263736002093e-01 -3.223938324593723405e-03 -1.302169506129196089e-02 5.449600785868825154e-02 -1.570480838838562293e-02
1.441956707397030468e-01 4.441366571232469029e-02 -5.017404193528380435e-02 9.090388741448367227e-02 -4.379074149879426392e-02 -1.391592302760699673e-01 -1.138165143952938815e-02 -1.581867562125894092e-02 5.181966430226372239e-02 -1.972934821710686792e-02
1.431232822314949804e-01 4.368810890175090639e-02 -5.838013764118406279e-02 8.744635313521867404e-02 -4.232964287739867520e-02 -1.393147662847684654e-01 -5.281439654088775949e-03 -1.230241558985427017e-02 5.119085737591588109e-02 -1.831593993492873496e-02
1.459085939000173138e-01 4.307604059417920184e-02 -5.537622902909293543e-02 9.338360189551318802e-02 -3.996735209388569549e-02 -1.381839979466665258e-01 -1.103270142259178341e-02 -9.639597650203928642e-03 5.282106723563084055e-02 -1.264165422348453513e-02
1.384376109880863515e-01 4.808168246738241114e-02 -5.810994893499443759e-02 9.061996398819482934e-02 -4.679109215585196269e-02 -1.367428014888479870e-01 -3.961780708455615169e-03 -1.314341640150462273e-02 4.975048721239965638e-02 -2.193845433461187600e-02
1.439174156729522702e-01 4.393584872048093837e-02 -5.251432228705514571e-02 9.312819160464277934e-02 -3.827407693431775226e-02 -1.366648503581442131e-01 -1.191782945385537647e-02 -1.523464314286683725e-02 5.297855986438030490e-02 -2.091382751654885519e-02
1.421534940035478201e-01 3.994380177709278695e-02 -5.773491303279457837e-02 8.464958628996234469e-02 -4.009231495077233975e-02 -1.429836369014661213e-01 -8.581453488736314611e-03 -9.553610852994744856e-03 5.272279825937504355e-02 -2.231173499385018591e-02
1.385900695064855304e-01 4.561520590869788672e-02 -5.396259239571694899e-02 8.684329655910137669e-02 -3.868715200509866697e-02 -1.390832242224111781e-01 -6.678642265455748787e-03 -1.293532402410484464e-02 5.297987453530742658e-02 -1.951067433436724785e-02
1.409253385636674294e-01 4.149885938345146408e-02 -5.787294822295521723e-02 9.390809224519583442e-02 -4.063378403385366905e-02 -1.403182956958944072e-01 -9.760824015972119003e-03 -1.629085896994650340e-02 4.625894584337830046e-02 -1.828595803358206220e-02
1.400610867614474897e-01 4.636385678185488829e-02 -5.595735988883383111e-02 8.626040512095262125e-02 -4.778250470043307607e-02 -1.445503874674373690e-01 -5.241042560719695077e-03 -1.429745534209006345e-02 5.104444635122690893e-02 -1.366341135875980689e-02
1.468465174154737485e-01 4.156939173768497975e-02 -5.310409625075764029e-02 8.709759211272781465e-02 -4.782278198968910321e-02 -1.376390972437088189e-01 -8.834798787480665355e-03 -1.499978484593150925e-02 5.156182537567575302e-02 -1.431963973680137545e-02
1.432329463774180689e-01 4.812692844817423321e-02 -5.699945793360225443e-02 9.244483668448209845e-02 -4.617293254128687630e-02 -1.356949672123508865e-01 -5.160087531827222719e-03 -1.667934701651483526e-02 5.515236014502895162e-02 -1.532156622146170141e-02
1.394825443674567178e-01 4.153354166737505127e-02 -5.455287114245197660e-02 8.472099552590152405e-02 -4.595459122993530293e-02 -1.409760290945550054e-01 -8.293270492363084487e-03 -1.419866954400240792e-02 4.845494130308692499e-02 -1.676228082458159144e-02
1.455816840007389812e-01 4.057574045332056761e-02 -5.456108721021746960e-02 8.578504940880779528e-02 -4.086069517242060106e-02 -1.412622867539971294e-01 -6.380757177120259353e-03 -1.700162542550963038e-02 4.712713183357334495e-02 -1.774956148267372441e-02
1.404992553200060390e-01 4.880474134622837801e-02 -5.208162574368897096e-02 9.195100454386191668e-02 -3.899209458688727981e-02 -1.443886594276496682e-01 -6.513045596481271786e-03 -1.298966309809285527e-02 5.529801802561200991e-02 -1.970864902123777712e-02
1.393514157406609277e-01 4.040336131635523242e-02 -5.957058198584379988e-02 9.375966151327840004e-02 -4.133012651843742669e-02 -1.373713546618389181e-01 -9.217669238165865017e-03 -1.297032212578729318e-02 4.631820690134936386e-02 -1.777384832981705048e-02
1.467180793389511739e-01 4.816547434686617446e-02 -5.635328876339015802e-02 9.408006989077151438e-02 -4.571227571963435571e-02 -1.357296955579135322e-01 -2.621193248640350023e-03 -1.084239791412672585e-02 5.198313360880760930e-02 -1.388724462291376222e-02
1.398733307865844266e-01 4.788985744682946327e-02 -5.355611136258340427e-02 8.459673692294519820e-02 -4.455695680502425732e-02 -1.437414751725882289e-01 -2.216676397522801892e-03 -1.405072071725063480e-02 5.065256789512630892e-02 -1.623539912517605113e-02
1.406289740028026647e-01 4.076942461055622219e-02 -5.151370094981615883e-02 8.636284746438385729e-02 -4.291610215888191915e-02 -1.429797134923225244e-01 -1.105652545076504442e-02 -1.021250861343380931e-02 5.540784913037103548e-02 -1.302177770853318525e-02
1.460086829337184644e-01 4.714089522068666549e-02 -5.640342676147219736e-02 8.527538224523620314e-02 -4.395688027020838717e-02 -1.429005423603604830e-01 -1.071009394812553681e-02 -1.830015196978210593e-02 5.293459788224551960e-02 -2.251584970291294757e-02
1.446489354265343141e-01 4.086988834770399065e-02 -5.893965745589101191e-02 8.536039868774229766e-02 -4.130881391080739456e-02 -1.427692116835414804e-01 -7.829575628904371365e-03 -1.326073587441137583e-02 5.428416597842766061e-02 -1.535968166204999125e-02
1.396464069938936070e-01 4.071524988661150840e-02 -5.918113507754657610e-02 8.748035469016574028e-02 -4.540811049194963533e-02 -1.406614781143610826e-01 -5.202156939932743064e-03 -1.187816933126203608e-02 4.851384270596128395e-02 -1.883085473016206726e-02
1.387546375588674941e-01 4.728587701676546101e-02 -5.916639751742615305e-02 9.143434076260631427e-02 -4.024233802493552142e-02 -1.374806243968648423e-01 -9.408924867032266229e-03 -1.509629525985573852e-02 5.155464989170496087e-02 -1.990190526491858805e-02
1.401982264281704804e-01 4.136300974946899300e-02 -5.513631944419854214e-02 8.491049135789736912e-02 -4.003133313864036535e-02 -1.454157603430637491e-01 -4.631168743703225482e-03 -1.576652389411492897e-02 5.145406240586899299e-02 -1.382719303755224755e-02
1.426987985925434188e-01 3.963466970088999619e-02 -5.536721431800213644e-02 8.937754558008810524e-02 -4.319605942833165679e-02 -1.403989075077418658e-01 -3.729895178455911071e-03 -1.767070390444680159e-02 4.960079132633344462e-02 -1.500442446400564352e-02
1.378121136517120315e-01 4.756108185171929043e-02 -5.323896780228223186e-02 8.793692618876811085e-02 -4.161395513526083834e-02 -1.422993493861778591e-01 4.529890431770162117e-03 -1.544731134031961280e-02 5.453967843989235981e-02 -1.828270728173791992e-02
1.402522309694307912e-01 4.107066809967508531e-02 -5.154189169427212530e-02 8.989368198955390021e-02 -4.785612197759628317e-02 -1.445223116816144460e-01 9.782479120176322193e-03 -1.168703137496767894e-02 4.904708229535741787e-02 -1.818456254580501016e-02
1.406442502886809387e-01 4.135869592626358754e-02 -4.874804936396640725e-02 8.862307388575875466e-02 -4.194819099939994800e-02 -1.382858823387407565e-01 2.167841943428294726e-02 -2.466086811845580665e-02 4.846258525641361503e-02 -2.137949841644826848e-02
1.330672274022249857e-01 3.993095780280208479e-02 -5.716417988468922018e-02 8.964641475484363964e-02 -5.211517371536564247e-02 -1.375481540582018936e-01 2.565762185904933365e-02 -2.364598030183871075e-02 4.237561452080105401e-02 -2.520043343526062393e-02
1.384463672136025392e-01 4.186572858131568792e-02 -6.269389981863641992e-02 9.017198188220566790e-02 -4.318275187848776703e-02 -1.429689367008007139e-01 2.752001826693578623e-02 -2.311358272304137387e-02 4.826845706443215478e-02 -2.525235570491085949e-02
1.356027026515705947e-01 3.580809161518867800e-02 -5.990176854890422176e-02 8.161961554963705068e-02 -4.950820682887265706e-02 -1.445003450433746950e-01 2.466382622262365196e-02 -2.496052191889442176e-02 4.146450625915609756e-02 -1.912965026812897887e-02
1.452292355483170150e-01 4.308890308364436705e-02 -5.449050596919297051e-02 7.781496467265497374e-02 -4.652759360619541235e-02 -1.420111985192826498e-01 3.354172576848449272e-02 -2.507727614257610274e-02 4.917160721755561154e-02 -2.281962445544622256e-02
1.367158173055719739e-01 4.504206876362636808e-02 -5.589390840488529105e-02 8.381699009279106050e-02 -4.956704992156354267e-02 -1.450743166945656082e-01 2.458100023200635031e-02 -2.127993870938409832e-02 4.969710258231029715e-02 -2.083362620604713514e-02
1.357648692284771363e-01 4.444744957205390423e-02 -4.450246049525397735e-02 7.975861304239488525e-02 -5.226437102576331900e-02 -1.473745914175328409e-01 2.678755380683573231e-02 -1.294289014485786038e-02 5.137308302655622938e-02 -1.689024541851854438e-02
1.332576906108788872e-01 4.460414661347824467e-02 -5.643573032705081344e-02 8.236266161986952050e-02 -4.184114298247180314e-02 -1.465630140174917218e-01 2.343070214556651140e-02 -2.018632002452691240e-02 4.851007681769240604e-02 -1.525086539133210101e-02
1.344518956195605019e-01 4.096298103270518826e-02 -5.812868035785361681e-02 8.908646574083717296e-02 -4.625823819991464747e-02 -1.451127906164776937e-01 1.421918190251887995e-02 -1.847795941825662938e-02 5.096776207854980534e-02 -2.156132199835528521e-02
1.397298642244040601e-01 4.726816054728195937e-02 -5.449167888318331293e-02 8.979850654259607934e-02 -3.964235064400144920e-02 -1.387624135845679230e-01 1.085203671916354883e-02 -1.262963063749457729e-02 5.512366747812923184e-02 -1.973618365450063861e-02
1.353646608766702619e-01 4.157925844247246927e-02 -5.837291505247189233e-02 8.534505906913363027e-02 -4.718809458774143872e-02 -1.404646556280347014e-01 3.969743863173298866e-03 -1.127457940099417869e-02 5.433708326897591229e-02 -1.867770545600909091e-02
1.391722270188823218e-01 4.527740273775099356e-02 -5.081418894312966783e-02 8.559485190000148958e-02 -4.252020656971190748e-02 -1.426530434469495401e-01 -3.082301496752340615e-03 -1.487028368773466065e-02 4.771668243437798829e-02 -1.776396923947013567e-02
1.400146672224642230e-01 4.313072327969184883e-02 -5.507738386067229791e-02 9.068876884608340072e-02 -4.469828327887855751e-02 -1.359909404756768081e-01 -1.488053178523436083e-03 -1.834763917134882641e-02 4.821184489707381476e-02 -1.816936160837195544e-02
1.379894068289311548e-01 4.288518178403520620e-02 -5.311746521521432118e-02 9.120985106132679932e-02 -4.180544769868647231e-02 -1.381175997550461720e-01 -9.142509140818546112e-03 -1.541744263900314028e-02 5.244107906291433502e-02 -1.383777665884995678e-02
1.423799084797875147e-01 4.222741840315561573e-02 -5.943252570169870602e-02 9.156773663509856775e-02 -4.795045094926197321e-02 -1.414960930838600750e-01 -6.729598150077518819e-03 -9.613309169978736385e-03 4.657359969046855758e-02 -1.857070106948043031e-02
1.371862599386079462e-01 4.282653173711613304e-02 -5.351256769336069918e-02 8.725504782764227640e-02 -4.593179248779005047e-02 -1.440658514487989095e-01 -6.263567855501931715e-03 -1.188172372860375400e-02 5.239822564609792482e-02 -1.314151408195812429e-02
1.369701600804414110e-01 4.587238843264063171e-02 -5.373095591078223821e-02 9.035176444505925442e-02 -3.840158878594417124e-02 -1.450541670483694590e-01 -5.070145988690871221e-03 -1.069763729063200400e-02 5.077672620635551720e-02 -1.929047559319517144e-02
1.448515295737806408e-01 4.037285115002449409e-02 -5.531452190445936001e-02 8.966389209106476188e-02 -4.108972787500106416e-02 -1.443140264617457647e-01 -9.757375280326744879e-03 -1.473140816074924343e-02 5.191160097034101112e-02 -1.376051647698905284e-02
1.431313896239203021e-01 4.073503660304957780e-02 -4.992907695388582034e-02 9.318222569291141621e-02 -4.300208437289322616e-02 -1.359994039641040098e-01 -6.621162358133972879e-03 -9.601363108759027737e-03 5.397762792617314537e-02 -1.294726018622022537e-02
1.461409560492882564e-01 3.976076006798594242e-02 -5.798715824014917530e-02 8.835571511636819420e-02 -3.850786501139238233e-02 -1.422225945873106523e-01 -1.043029385682935593e-02 -9.971377126785054695e-03 5.014259839497169774e-02 -1.355136834561996434e-02
1.385454326047078355e-01 4.601159700878128256e-02 -5.558679902826816482e-02 8.522923603565908668e-02 -4.106466053782154013e-02 -1.427488962266783845e-01 -1.138425679510575092e-02 -1.823498080515462486e-02 4.628943961080742714e-02 -1.355279471431283106e-02
1.444573138380683963e-01 4.838104546583761600e-02 -5.312440188706420846e-02 8.975376763566519922e-02 -4.498482834087266097e-02 -1.352432612687836655e-01 -8.361372556741781745e-03 -1.412793429551141393e-02 4.940939883980461494e-02 -1.283485499580861063e-02
1.387294865141416866e-01 4.248938313868766414e-02 -5.297116635306683280e-02 8.498109735826314681e-02 -4.195705709248805093e-02 -1.404464419640563122e-01 -8.125030466741938601e-03 -1.721343155633652325e-02 5.082378152728361104e-02 -1.895109981501179666e-02
1.415083268528881111e-01 4.257230049353324247e-02 -5.002994138355559145e-02 8.568726530400590236e-02 -4.712167758033526666e-02 -1.419045409055864626e-01 -5.281480368263498544e-03 -1.236657152962629749e-02 4.965018697489794602e-02 -1.286522591646455972e-02
1.402631852485672348e-01 4.476475920652738666e-02 -5.268287853530601028e-02 9.211904331766194998e-02 -3.886661925343642271e-02 -1.382132838501157757e-01 3.493984545593897643e-03 -1.287349757601674236e-02 4.895722695529380192e-02 -2.360242263986906536e-02
1.331029016404952359e-01 3.791708693955824633e-02 -5.113645568671059544e-02 8.652206524414546296e-02 -4.434688939692368187e-02 -1.400964819588128296e-01 1.306367505808144272e-02 -1.902160788080287795e-02 5.084878009163992102e-02 -2.135250048342695120e-02
1.336634725416201430e-01 4.140324552384474360e-02 -3.887951258041450614e-02 8.121966866828306264e-02 -5.404089312066234080e-02 -1.474930400506186401e-01 3.828816841214312261e-02 -1.494842816185042687e-02 5.142060573101234211e-02 -3.066957453297827763e-02
1.218946576673797799e-01 3.239882328635717429e-02 -3.879012416710003047e-02 7.206654798804390527e-02 -5.361843729968906319e-02 -1.510035874796236965e-01 7.459574827248792450e-02 -2.712189306114797319e-02 3.756953361404233305e-02 -2.368093846859791254e-02
1.138132023996484138e-01 2.628956719471945910e-02 -3.803273014643075017e-02 6.407864117345238308e-02 -6.481406977134700209e-02 -1.540337168092161813e-01 1.384898534202506082e-01 -3.701560590602680223e-02 3.238766315231406817e-02 -3.274221304472522270e-02
1.044318493242682305e-01 6.206734393264943389e-03 -2.573949272843232064e-02 5.005744267113405865e-02 -6.843769646381323013e-02 -1.566750097766938521e-01 2.082764453665559290e-01 -4.383645686426140831e-02 1.835809996811829659e-02 -4.494094336890643027e-02
9.558734777152805284e-02 -1.556990133882515774e-02 -2.471529528097482151e-02 4.004937417872500571e-02 -8.936521530568547478e-02 -1.631662695802655050e-01 3.069262785289746387e-01 -5.533120549062422316e-02 1.147494248923908340e-02 -5.978847639243307227e-02
8.871435571378748219e-02 -3.252962679555783387e-02 -1.472793488858271244e-02 2.628090519270118858e-02 -9.954266313901290186e-02 -1.821645736396129422e-01 4.341824964164871514e-01 -8.561162956691804882e-02 -1.676634113229493947e-02 -7.488080722959371271e-02
6.400830659355663532e-02 -4.554686159732274781e-02 -2.884461474882843435e-02 5.755504494945876647e-03 -1.124501297371604813e-01 -2.000155075008895333e-01 5.736987867911559347e-01 -1.064309607616215486e-01 -3.844166021436613151e-02 -8.836882917066805898e-02
4.166947070704098144e-02 -4.609132872642759254e-02 -4.171932123932872716e-02 -8.469525778654798942e-03 -1.244530131020475244e-01 -2.073905232675939125e-01 6.636565658913957666e-01 -1.047819237776935614e-01 -3.619028549293350216e-02 -9.226240537331692471e-02
3.907370933126152329e-02 -4.731588456257617564e-02 -7.286805847269420267e-02 -9.203356183708641391e-03 -1.337433180153139445e-01 -2.034640340339373965e-01 7.117623459217783388e-01 -9.419489157177320104e-02 -2.200670538153763622e-02 -1.012820151189584156e-01
3.975035698018564850e-02 -4.797481542675921529e-02 -9.353682010929359469e-02 -1.135761651569832872e-02 -1.181452910958322444e-01 -1.953028728584649265e-01 6.699643195462661183e-01 -9.496484148871389697e-02 -1.772984998684858787e-02 -9.310332337201418507e-02
5.596044042118854256e-02 -2.567397447252428577e-02 -1.020864267659865321e-01 8.685956102175515113e-04 -9.197794625888597309e-02 -1.894495591528203293e-01 5.701574091220059648e-01 -8.279434688059969516e-02 -3.520014057923077921e-03 -8.178661107827069066e-02
7.665635144227739284e-02 -2.049129458916766795e-03 -7.862325997087159235e-02 2.138904794108220653e-02 -7.849460868519328449e-02 -1.651390443036850342e-01 4.115012713443587655e-01 -6.613506150615398871e-02 -2.866043780487467600e-03 -7.238641440528845172e-02
1.082283276131305455e-01 1.557375445417068412e-02 -7.437482931553782151e-02 4.702322181562575837e-02 -5.970134010224283777e-02 -1.522118701155147358e-01 2.460248594660804367e-01 -3.717440812920218274e-02 2.428458215280272434e-02 -4.716896083059267386e-02
1.268002027285203004e-01 2.794739575811229157e-02 -6.933767685961819693e-02 6.272573997330017914e-02 -5.642671958284559142e-02 -1.492162953535929315e-01 1.235003095372357446e-01 -2.463873009209313278e-02 4.032875043013279398e-02 -3.078922032336357112e-02
1.307448386567361398e-01 3.789987170890504048e-02 -5.955179564019274369e-02 7.996285865899037393e-02 -5.463225240573080926e-02 -1.455325200700633703e-01 5.117846183291380885e-02 -2.507156749051131159e-02 4.580273734264519309e-02 -2.682562428424021747e-02
1.389245203487043112e-01 3.940309139495129509e-02 -5.505982981360667966e-02 8.328453388758648435e-02 -4.190224615698127930e-02 -1.368276827818433738e-01 9.614446742501671708e-03 -1.811253698943820004e-02 4.777761619108381735e-02 -1.905245687538147450e-02
1.362000711591268010e-01 4.481897561756637699e-02 -5.434908062971308129e-02 8.822727238702694763e-02 -4.253166144194338305e-02 -1.381728272012464065e-01 3.488444289119776130e-03 -1.582425708123645983e-02 5.460268451799842743e-02 -1.688374334304235461e-02
1.405173744574536032e-01 4.561707625823283041e-02 -5.619289565301140849e-02 9.320836751610490911e-02 -4.761697347663927660e-02 -1.430985401691295122e-01 -8.800589390437808107e-03 -1.483996102100199228e-02 5.313098384046101991e-02 -1.867362891352969748e-02
1.418198911768885906e-01 3.940588154267019028e-02 -5.548086102820808108e-02 8.509990609371782810e-02 -4.594675946313155762e-02 -1.358989443924654150e-01 -9.880988252272975350e-03 -1.025104740130802425e-02 5.370758795575306804e-02 -2.103866191974083227e-02
1.430002475142093388e-01 4.055704061275037381e-02 -5.245599669806350757e-02 9.083899111907849100e-02 -3.990990636743636105e-02 -1.404290382881781818e-01 -2.886339417371495790e-03 -1.834093431976595648e-02 4.860753989040977191e-02 -1.547959831451160839e-02
1.411242200589865325e-01 4.112993543641180194e-02 -5.866277082747310689e-02 9.263775945997267114e-02 -4.329786219969002092e-02 -1.364000470628792816e-01 -4.702078952538105844e-03 -1.473716173134306286e-02 4.941376438169649971e-02 -1.747374082265076845e-02
1.458337274734039790e-01 4.677320769084195723e-02 -5.968334863906830240e-02 9.140594685904769590e-02 -3.883421791528841177e-02 -1.381183261870252976e-01 -1.026491248003040535e-02 -1.399924251337593059e-02 4.708181441937377837e-02 -1.904017150576695072e-02
1.463142983609118652e-01 4.858972276580532379e-02 -5.742358125569434896e-02 8.786067878701832312e-02 -4.202716330303354897e-02 -1.355909108294665599e-01 -9.996133255872877502e-03 -1.626525735078375445e-02 5.441422251304744301e-02 -1.771120197207983263e-02
1.462668465994578781e-01 4.099706512072364556e-02 -5.471048035879996774e-02 8.772685010283286233e-02 -4.486386638543827382e-02 -1.407383603822701945e-01 -6.757557220263576449e-03 -1.532061708672655988e-02 5.416847211990299948e-02 -1.532859232703655608e-02
1.447118045110372675e-01 4.159499467641067372e-02 -5.393396696953925429e-02 9.221063624784803237e-02 -4.007342851958291263e-02 -1.419266240304908611e-01 -2.962012955144062779e-03 -1.166237165243219284e-02 4.653295394372450322e-02 -1.420509789777832897e-02
1.415311648760561036e-01 4.110331683192458563e-02 -5.110560101858223347e-02 9.135563988674377800e-02 -4.339626940336170635e-02 -1.412489282595134066e-01 -1.184837701625042570e-04 -1.330577741669159916e-02 4.879856110467988006e-02 -1.985423364865250562e-02
1.399059676466955227e-01 3.601436981495828582e-02 -3.784326575816676641e-02 8.701151022255737555e-02 -4.465718453726180703e-02 -1.386271257958046343e-01 3.725794643951083583e-03 -2.135412540403425902e-02 4.407832575000753678e-02 -2.855120355514109004e-02
1.252859629744314529e-01 2.851114512027630096e-02 4.361885053311529911e-03 8.153603982661544736e-02 -5.227503167160985759e-02 -1.454973331593759633e-01 3.327084480813376904e-02 -2.772214274913386775e-02 4.251499652062740164e-02 -3.752782087147150253e-02
1.049232543915282756e-01 1.768631448224437450e-02 6.245955160208298274e-02 8.527375546066491563e-02 -7.148874507322795779e-02 -1.498105069501082243e-01 7.438480709108889755e-02 -4.593569933223091983e-02 2.933968027220871730e-02 -4.986850634057533177e-02
8.140667771178809742e-02 -1.727571076118528462e-02 1.679350687080326809e-01 6.679433429737365036e-02 -1.004368432591461469e-01 -1.664637348635383540e-01 1.460513620461069972e-01 -7.039448667763727185e-02 -2.172241144363552898e-03 -6.276682799025815052e-02
4.262272996212570358e-02 -4.624874328466064416e-02 2.715848303266305552e-01 5.332155346338951496e-02 -1.274527332040959748e-01 -1.849644047982889616e-01 2.584617224570436300e-01 -1.014883762966639347e-01 -2.546193912668087700e-02 -9.591507712628544180e-02
1.806114459256658727e-02 -8.505142082204623921e-02 4.021184467885058345e-01 3.673175682630300948e-02 -1.703111357939324222e-01 -2.090291163907107008e-01 3.949244488950009457e-01 -1.385462812639170205e-01 -5.867975213192356404e-02 -1.410653701998458298e-01
-2.282345066264037520e-03 -1.429503340367558051e-01 5.340072315720003626e-01 2.715212128815677403e-02 -2.188857199174554791e-01 -2.378266390099644800e-01 5.805395747581615362e-01 -1.872464380479455792e-01 -1.122150275090837979e-01 -1.981617643541347951e-01
-1.512336290932921393e-02 -2.008140108865912321e-01 6.498947201891638326e-01 -3.747057500748372273e-04 -2.610792562076714174e-01 -2.755079008378612526e-01 8.445806966760273093e-01 -2.575640871646591168e-01 -1.710096663185785848e-01 -2.602599315082485543e-01
-4.821250409460647174e-02 -2.451161250553251514e-01 6.527572578726215102e-01 -4.343716117441599051e-02 -3.029175106513936622e-01 -2.912748259910301063e-01 1.178382301407820520e+00 -3.071609460276769066e-01 -2.198549259517469101e-01 -3.019892338803108478e-01
-1.003977692692014506e-01 -2.681671553461597579e-01 5.981002259822050249e-01 -1.021787906343094854e-01 -3.298113749170969444e-01 -3.098335004566640793e-01 1.443361881095912569e+00 -3.331324547899947031e-01 -2.319811059108454476e-01 -3.233091302985683924e-01
-1.131538366509893118e-01 -2.784190201142185961e-01 4.880936140421449632e-01 -1.117183844964179662e-01 -3.248508814965432312e-01 -3.043120936830988055e-01 1.555899995799590485e+00 -3.349413975311615888e-01 -2.259096437339480345e-01 -3.062896597194005865e-01
-1.016530248427585242e-01 -2.659237532079637978e-01 3.306885246748580975e-01 -1.201217169158798476e-01 -2.845677157386365952e-01 -2.781430324551864564e-01 1.525546381092189874e+00 -2.971896189176089220e-01 -1.914342839840295352e-01 -2.777855432805166891e-01
-7.714679004945590446e-02 -2.077907012997304292e-01 1.827518979251572806e-01 -9.227532846195155014e-02 -2.106956249551161509e-01 -2.283920847761471973e-01 1.318900753377427959e+00 -2.428430375131570285e-01 -1.506033940343285693e-01 -2.331851136628850518e-01
-1.518358619142733297e-02 -1.223043444619903303e-01 7.258376197229921001e-02 -4.867538652718488706e-02 -1.508372100473717170e-01 -1.950797365470152145e-01 9.700491204244005017e-01 -1.763692315220980467e-01 -1.179091530832329787e-01 -1.693692657505427579e-01
4.280164161562920871e-02 -5.394738516684206842e-02 -6.713642210269236618e-03 4.083345169465295472e-03 -9.978111385127511057e-02 -1.588335599522074648e-01 5.830419931506126696e-01 -1.048163120594626380e-01 -5.002787014266669302e-02 -1.036362171356302042e-01
8.539316756081272164e-02 -8.096051275092127839e-03 -4.434730245867523485e-02 3.041977879843467750e-02 -6.077243150857491311e-02 -1.379643258882922718e-01 2.990038746399559799e-01 -6.249605445632746420e-02 6.087841981778681008e-03 -6.272300343313737259e-02
1.191176442755416953e-01 1.864300814003289411e-02 -6.590364629283182452e-02 5.602982746079450405e-02 -5.187704009318034465e-02 -1.304339146718736797e-01 1.320500072727472940e-01 -3.170802311410795410e-02 3.227202529665366970e-02 -4.056603972289957866e-02
1.283090973776736532e-01 3.759310917697414323e-02 -6.320131692490076059e-02 7.574220207006819583e-02 -4.491600303303609071e-02 -1.375823165802244341e-01 4.442491800902299837e-02 -1.453351741825032427e-02 4.552880274680862205e-02 -2.529645936412942483e-02
1.378534281048759691e-01 4.184413742313666112e-02 -5.949241703354286870e-02 9.147593967258840775e-02 -4.290441984790097779e-02 -1.372929462321645366e-01 1.029455035778330772e-02 -1.421969062172446889e-02 5.412263753386434284e-02 -2.227003848561510957e-02
1.405896298036658498e-01 4.034068212260281949e-02 -5.160997299375611608e-02 9.288315330732369035e-02 -4.738551756631114581e-02 -1.372980173620078070e-01 -8.702274374840059459e-03 -1.006676099906709740e-02 5.164199876673084000e-02 -1.914018165485925974e-02
1.399026262773957197e-01 4.821206437109590293e-02 -5.707582200839068920e-02 9.274583447752340892e-02 -3.817820519097530479e-02 -1.372019760938626987e-01 -6.363796853538837388e-03 -1.836062238219315565e-02 5.040279213185038659e-02 -1.824756481944623740e-02
1.389710883533764041e-01 4.363629826084331614e-02 -5.615729944095525228e-02 8.610121095687274517e-02 -4.361555055102159933e-02 -1.425948842188250187e-01 -6.814346088882694379e-03 -1.848282319048840869e-02 5.474096843801256468e-02 -1.446648123396471544e-02
1.424689412666116095e-01 4.791850772127271424e-02 -5.011092754365063795e-02 8.556959128588285945e-02 -4.172097390024847446e-02 -1.352429437727138140e-01 -2.156078602370064060e-03 -1.280119386474311630e-02 4.695886294464774596e-02 -1.679819597925800642e-02
1.369637742948425496e-01 4.138953524036884102e-02 -5.017364668615904161e-02 8.777161788684120780e-02 -4.164539092657703473e-02 -1.424171326487959077e-01 -2.556751424589440765e-03 -1.154883648815574829e-02 4.897516581595377089e-02 -1.471251007735955608e-02
1.380247831862697894e-01 4.306905301955038512e-02 -5.726813872963821411e-02 9.150448394335169988e-02 -4.713210830402932150e-02 -1.412526254592433028e-01 -9.180968586649429844e-03 -1.385849900137653065e-02 4.910205905734587456e-02 -1.556601851249317381e-02
1.374593663825820489e-01 4.488911575789373415e-02 -5.688822911829800183e-02 8.748213179969011044e-02 -4.020969477079367610e-02 -1.358032801818480351e-01 -8.193298324887196907e-03 -1.087235182619604792e-02 4.640435832059405102e-02 -1.631815570870660467e-02
1.415810920165832543e-01 3.924156662302181325e-02 -5.280900563770350026e-02 1.009469161394577208e-01 -4.699734583139032751e-02 -1.472917904714937110e-01 -7.285411565880947453e-03 -1.507036611594468091e-02 5.283036807031283449e-02 -1.418946014890673166e-02
1.284266016408250610e-01 3.483935206040687793e-02 -2.764346995727248735e-02 1.143555906339129846e-01 -4.178395576575349990e-02 -1.465479446626477000e-01 -5.965988997181567548e-03 -2.247462713532927606e-02 4.826923562525185785e-02 -2.970823609904440707e-02
1.163317070591686625e-01 2.854088801877703238e-02 2.411483039404196602e-02 1.421838420804455716e-01 -6.670958925827420727e-02 -1.495838838932775916e-01 3.339211419662586715e-03 -3.297166709579351512e-02 3.618469689365295949e-02 -3.691913281310989919e-02
7.889147893838222014e-02 -2.890424395391205832e-03 1.321123589967940493e-01 2.060595364538011509e-01 -8.456318552105687725e-02 -1.569421653021695340e-01 2.246759000707753556e-02 -7.228310279265652560e-02 -4.970753708949731883e-03 -7.100706691041645813e-02
2.844274878549328187e-02 -7.055087000414393683e-02 3.242201793471149451e-01 3.006532461430994063e-01 -1.184102264825212802e-01 -1.786438178561882972e-01 5.492121526113593472e-02 -1.142693328626216004e-01 -4.814712233122315360e-02 -1.156126511981473981e-01
-3.081562187388740479e-02 -1.561557001234238351e-01 5.903017183031271653e-01 3.962476095031240431e-01 -1.851607719315240541e-01 -2.012091462015995202e-01 1.239268301518597210e-01 -2.019912222043055983e-01 -9.940249672852041751e-02 -1.906918385242346303e-01
-7.502148762455636277e-02 -2.432112664322169659e-01 8.892018300879325210e-01 5.394471182262001729e-01 -2.747142943961867756e-01 -2.086798333085400914e-01 2.163538015697961669e-01 -3.160223461430961001e-01 -1.747689986713210908e-01 -2.901354580756634882e-01
-8.136556845281636696e-02 -3.229310185906179576e-01 1.219084060786745471e+00 6.613292363068883351e-01 -4.064396991820724003e-01 -2.343457563273828315e-01 3.310964304793990731e-01 -4.651433733425519024e-01 -2.423473808663781370e-01 -4.348506506826554929e-01
-1.168148817631522660e-02 -3.244267671070871217e-01 1.548346879346983451e+00 7.157349735551620240e-01 -5.595034725732928038e-01 -2.867260916254816272e-01 5.081520562101247140e-01 -6.489527186285221072e-01 -2.937603313858849208e-01 -5.934600369380518270e-01
1.211560252914427593e-01 -2.250900454813027085e-01 1.718943403981390894e+00 6.665313829475368879e-01 -7.561000466233386286e-01 -3.509314494222188774e-01 7.890005731619301743e-01 -8.349508529125994061e-01 -3.077040789726002146e-01 -7.586474054440370818e-01
2.396606130730962181e-01 -8.672139431260694753e-02 1.764055606646944163e+00 4.975499530210069632e-01 -8.958175850337665169e-01 -3.586870009348100963e-01 1.110834706562593199e+00 -1.011505222591949194e+00 -2.743658631342237864e-01 -9.176799420874917068e-01
3.884599287912583465e-01 -4.764039588802355257e-02 1.670709409360190634e+00 3.322782918525833962e-01 -9.497609259590995556e-01 -3.417053354787187303e-01 1.361633334267797757e+00 -1.101135636908306958e+00 -2.432262686065991830e-01 -1.012451922221326184e+00
4.443108912879502048e-01 -3.525202917839953543e-02 1.468382457094746574e+00 1.449020308156337145e-01 -8.636092277702795972e-01 -2.784269414464643488e-01 1.469077292071262253e+00 -1.081131990378668917e+00 -2.457648628877253383e-01 -9.884880284797455952e-01
4.334198745482845117e-01 6.045048493483851093e-02 1.132933839012640664e+00 -8.160577638661698635e-03 -6.778628072297628870e-01 -1.984886118730037896e-01 1.365202218435082271e+00 -9.540828275020571958e-01 -2.199409291600715188e-01 -8.808700904776866070e-01
3.917017915730384159e-01 9.915760807155275802e-02 7.375773916350459869e-01 -8.800976490279574516e-02 -4.541022112500002761e-01 -9.336156405300247152e-02 1.118588886649458658e+00 -7.681570531310765171e-01 -1.834028916899395900e-01 -6.961918948579289834e-01
2.830693829230154224e-01 1.665359034306457264e-01 4.045894259963481177e-01 -1.259324976171057320e-01 -2.345779308353448389e-01 -1.920635833297284351e-02 7.717021457842069276e-01 -5.666590742883890197e-01 -1.193386948748231813e-01 -4.954790172330464371e-01
1.884559265507124159e-01 1.356390061581113082e-01 1.540960867040682691e-01 -1.016345549348048188e-01 -5.897871374308205628e-02 4.473118626769328338e-02 4.368056805575005197e-01 -3.763151452200041436e-01 -5.471904053713128047e-02 -3.212639316979569171e-01
1.322138874289263133e-01 7.501419169225558015e-02 1.192220307450122738e-02 -6.729082704328363806e-02 2.615388121561038060e-02 9.053867199411839983e-02 2.230086063459493784e-01 -2.262667388876849484e-01 -1.304232163133505623e-02 -2.010773831097250330e-01
1.086371392477283315e-01 2.345210099604350118e-02 -7.268488725862019828e-02 5.443201369118585466e-03 4.762034977984035827e-02 8.675084856017796497e-02 9.525425888189319179e-02 -1.240861980236291767e-01 5.737729321441981112e-03 -1.205117642076659334e-01
1.046494799227798977e-01 4.811477979622538238e-03 -9.349442104819616350e-02 4.078175885799978362e-02 2.496619129172029244e-02 3.000524680967781369e-02 2.961173617374962541e-02 -6.316331973734319594e-02 2.897028037328057068e-02 -6.390793037413963762e-02
1.267891690666960725e-01 2.351068353388386517e-02 -7.376926814728661241e-02 7.191366188301280549e-02 -2.093746971412476995e-02 -4.926047688725521123e-02 1.139927378366920561e-02 -3.618862026519325398e-02 4.676083710860561016e-02 -3.740079743988326821e-02
1.381287936840073782e-01 4.084624754143234560e-02 -5.369422857573270119e-02 7.804646168536313877e-02 -4.398522507552004440e-02 -1.121471405836054203e-01 -9.917882919209261919e-03 -1.885238618497035029e-02 4.932312987133988247e-02 -2.441176541651523049e-02
1.439018706752935028e-01 3.831818900713795939e-02 -5.171854103999048297e-02 8.758863684833075036e-02 -4.283653323698537185e-02 -1.358409536284537200e-01 -6.678528339003171437e-03 -1.544552003616128134e-02 4.815343914174299161e-02 -2.042045733690268580e-02
1.386245491217346082e-01 4.496175368820495150e-02 -5.655459197215475381e-02 9.379445932353019932e-02 -3.837194920454380098e-02 -1.390216249763877310e-01 -5.844087726857215455e-03 -8.980638141979602543e-03 5.478615666207695828e-02 -1.497942479758187888e-02
1.400790340589334604e-01 4.305581217488099743e-02 -5.772221062414992915e-02 8.933584961453014395e-02 -3.812560676295085466e-02 -1.361013742519544545e-01 -1.085147595551068378e-02 -1.858252089474527607e-02 5.466503092422238946e-02 -1.725842300967620618e-02
1.389450268235910002e-01 4.613695458954664153e-02 -5.329264650246044732e-02 8.568522441372092291e-02 -4.543328964937022596e-02 -1.446221041389372797e-01 -9.936365557003940321e-03 -1.751136703911974554e-02 4.761101716488515961e-02 -1.577545283003211479e-02
1.374381253840580575e-01 4.072124786420912995e-02 -5.792789598403177975e-02 8.771136832703582686e-02 -4.533214827099991268e-02 -1.429824558564605219e-01 -3.807313518387752532e-03 -9.188304451139484713e-03 5.038174553018076596e-02 -1.318813604998044300e-02
1.405179246067998489e-01 3.918078447376187323e-02 -5.508882926938103719e-02 9.517053971819618152e-02 -4.474031985926196775e-02 -1.400098171972865568e-01 -8.771802477778627843e-03 -1.021739321183104746e-02 5.364183752277214973e-02 -1.626694480883505989e-02
1.313536915205713029e-01 3.112320599715256986e-02 -4.628408745452836093e-02 1.350171046259108221e-01 -4.877765746875351721e-02 -1.513769610803682164e-01 -5.807793871407853324e-03 -1.808721020995670767e-02 4.587032364388043265e-02 -2.166675972223932461e-02
1.034753686786291510e-01 8.341517139043493415e-03 1.010728860304604612e-02 2.220581251643000409e-01 -5.678258121607689807e-02 -1.547242778742408675e-01 -1.679453952363496941e-02 -3.711822285804215749e-02 2.858254676980181291e-02 -4.411332130570840698e-02
6.041620711005529776e-02 -3.360577799791784198e-02 1.188481273234824886e-01 3.708417566110830399e-01 -6.447559589200119179e-02 -1.654793612684266335e-01 -4.223196236491659483e-02 -8.261873996933789821e-02 -1.453733443819230434e-02 -8.076262727801315766e-02
-3.177457812327638687e-02 -1.217488618223641905e-01 3.397430362882025157e-01 5.768181452715492874e-01 -9.923209027603135945e-02 -1.716222934026379043e-01 -5.532688453469137430e-02 -1.504536497426582076e-01 -6.947568251748142965e-02 -1.669846415398001660e-01
-1.324761545965439935e-01 -2.758677973787188598e-01 6.516830161330174898e-01 8.541750962854290918e-01 -1.457669087465937041e-01 -1.660492535920851942e-01 -4.008562450592993015e-02 -2.684681209340110120e-01 -1.339281074669352589e-01 -2.928456257726537726e-01
-2.001444034149189033e-01 -4.639476058627759469e-01 1.000650020711751909e+00 1.182707553302752235e+00 -2.072807160842078666e-01 -1.616830791449135885e-01 -2.447865934409984567e-02 -4.476332824447658565e-01 -1.793623053151957025e-01 -4.599712198308621436e-01
-1.849520942607217333e-01 -6.758106736971132289e-01 1.371157495166947848e+00 1.535076242132155322e+00 -3.699694707262325966e-01 -9.481839669622338374e-02 -1.417031013694389566e-02 -6.766274007819815806e-01 -1.752740708994079410e-01 -6.494654398851871235e-01
-6.092269191157857755e-02 -8.496786782533151117e-01 1.701357208862581682e+00 1.808933306855736500e+00 -6.195899943565301715e-01 -3.553021116676446239e-02 1.972870929157198236e-02 -9.560990208699984283e-01 -8.785480479610424664e-02 -8.680336281140103027e-01
1.465219132969629856e-01 -8.290205732995863386e-01 1.905073968032949150e+00 1.906486824744761055e+00 -9.168889733246157192e-01 -2.151155541554228279e-02 1.967532626662982786e-01 -1.324824101957075895e+00 1.390464800702961301e-01 -1.135965659732924404e+00
4.322317777712522680e-01 -5.935100648353384134e-01 1.947495846124827512e+00 1.857569932224406806e+00 -1.288723490433531627e+00 -3.447563592433287166e-02 4.205123908049708814e-01 -1.671455325058586849e+00 4.101030472724787601e-01 -1.419739342334247256e+00
7.315872408182982900e-01 -3.000285237557138163e-01 1.918435924746803245e+00 1.639411265893069958e+00 -1.556143123675999940e+00 -5.833664314993460692e-02 6.053744080761611635e-01 -1.958812456738207253e+00 6.971130965314051853e-01 -1.669018476453901778e+00
9.989265858131228804e-01 -1.117270542811123479e-01 1.826098702517573447e+00 1.334823583943489655e+00 -1.638018764409136185e+00 -2.323393618498090230e-02 6.615742460285339854e-01 -2.084400626362876707e+00 8.867345042104612940e-01 -1.787540532092309897e+00
1.168173091220930493e+00 -5.719602257611326040e-02 1.633247831512977033e+00 9.710120032859563821e-01 -1.428167926528898457e+00 6.614614083524984756e-02 5.565142477295423884e-01 -2.054665761396967216e+00 9.681423713575044721e-01 -1.784568505209194189e+00
1.166045691931092643e+00 9.185369637634832607e-03 1.347155431883300114e+00 5.750263520321806654e-01 -1.033320833472259670e+00 2.138768886085503085e-01 2.874700690287387284e-01 -1.868034271026124404e+00 9.672334255304162465e-01 -1.620471724920808709e+00
1.034361803440000616e+00 5.033797070436438204e-02 9.185008372301428636e-01 2.676775447061794377e-01 -5.578421614091252367e-01 4.243604285705957491e-01 4.359863567463569817e-02 -1.555108971535971829e+00 7.968234913558799315e-01 -1.357080711133591189e+00
7.953410065381837368e-01 3.515739587735509930e-02 4.893711954224881922e-01 4.286973017075556419e-02 -1.912994682741925301e-01 5.894470453467659521e-01 -1.257946319611045749e-01 -1.164273173898073832e+00 6.016104883910915468e-01 -1.020359612197698551e+00
4.827917566917223069e-01 -4.085805934351890642e-03 1.988115940054346886e-01 -1.004819217964032646e-01 9.816598465121423311e-02 6.773009494764611338e-01 -1.997594093644051716e-01 -8.158019196610329926e-01 4.323270242507000760e-01 -7.091659369846944339e-01
2.527260038927866548e-01 -9.279773580356828755e-02 -3.608862049496155446e-03 -1.583549419734113506e-01 2.504490536677506651e-01 7.038758228023578312e-01 -1.804663656193550569e-01 -5.456849202124728349e-01 2.820015034738561077e-01 -4.618821377845283571e-01
8.251811586642321394e-02 -1.219499819440323513e-01 -1.158990609622645024e-01 -1.362618419221674482e-01 2.797825541577046438e-01 6.267815274620980315e-01 -1.250661183939739685e-01 -3.161410731439439625e-01 1.645359872763572373e-01 -2.725647343670467571e-01
2.190267912887871107e-02 -8.600860051788671023e-02 -1.519571270920354045e-01 -7.430448109581715144e-02 2.048256642242511361e-01 4.546278551300833026e-01 -7.914957269879480117e-02 -1.721852197813582563e-01 9.171065263923824928e-02 -1.676904088104525237e-01
5.870064139828803235e-02 -3.026281778941264378e-02 -1.033088627774910451e-01 6.191325750895517767e-03 6.411599630633009472e-02 2.088371918779513836e-01 -4.122625245996526522e-02 -8.475652985895605618e-02 6.441286799358021675e-02 -9.189295646385649274e-02
1.185787924162059470e-01 1.639022367753866991e-02 -7.300646941354599351e-02 6.296519151681076454e-02 -2.542169467932642313e-02 -2.881847349758553598e-02 -1.504763380299620028e-02 -3.593643341309826766e-02 6.107031219827670221e-02 -2.987158476478470742e-02
1.400691690521158050e-01 4.112635473268043407e-02 -5.608574585493068809e-02 8.506286690309164400e-02 -4.600094899717182412e-02 -1.204436395451105174e-01 -1.013939428086064846e-02 -1.531501885379777002e-02 5.040575423506758052e-02 -2.497319610769147685e-02
1.454550524655835175e-01 4.711116535104215020e-02 -5.692034221744961958e-02 8.786667720568819284e-02 -3.879212839084517778e-02 -1.366462265996762626e-01 -5.688779926547719336e-03 -1.668924331221722374e-02 4.629113674227777059e-02 -1.862282624552294083e-02
1.436693993340811826e-01 4.768522679887880061e-02 -5.120798822433594161e-02 8.479212735828985104e-02 -4.558772164597763021e-02 -1.418319378972960065e-01 -1.014764818611150164e-02 -1.080467000401225466e-02 5.335331187098916322e-02 -1.746179388535358534e-02
1.467445504101585196e-01 4.084100730460866330e-02 -5.073836124848193907e-02 8.565684319828215099e-02 -4.639747492920517913e-02 -1.382606917795639878e-01 -1.093927337528848368e-02 -1.317597283346344170e-02 4.988098960486620631e-02 -1.534538463375313168e-02
1.443747985092308506e-01 4.708716747087974414e-02 -5.160392872467819275e-02 8.663478227451051894e-02 -4.505882842614519768e-02 -1.406040758749842468e-01 -7.767176509995283619e-03 -1.431402435605367944e-02 4.874140386154311028e-02 -1.469687823107932410e-02
1.343268167225958043e-01 3.716247399013308805e-02 -6.037198338925722774e-02 1.246817192815661696e-01 -4.836718390894824415e-02 -1.471072171817300878e-01 -1.432581911814045407e-02 -9.226368250449593772e-03 4.352621016815637345e-02 -2.030143115346169300e-02
1.234483537078262805e-01 1.484550163177879994e-02 -4.449018384738601811e-02 2.081967865747951785e-01 -4.714819701706032817e-02 -1.596690116077250643e-01 -2.689056181924503672e-02 -1.339262812057343335e-02 3.070124016292237815e-02 -4.445999557355211768e-02
6.837855830016927039e-02 -4.590052439802030232e-02 4.090645056935458129e-02 3.561197746387082530e-01 -5.459796024990886537e-02 -1.714254806981962698e-01 -5.805837935902492114e-02 -5.945620038862863867e-03 -4.368783485812675893e-03 -8.927637821157609344e-02
-2.222597564852644286e-02 -1.350239346685507269e-01 2.108371181119839122e-01 6.293691762966129311e-01 -6.885972404613956155e-02 -1.838389364526643865e-01 -1.152609486031456881e-01 -3.547758489309239816e-02 -6.163926776739749730e-02 -1.707682805907927426e-01
-1.452731594041502261e-01 -3.025478786619406613e-01 5.074205667546023424e-01 9.544595482100901584e-01 -9.901359256304680112e-02 -1.962126869947923014e-01 -1.651499896202316131e-01 -1.035969862845939476e-01 -1.030092631148712135e-01 -2.934476471519576468e-01
-2.497569122967488731e-01 -5.526947108361759398e-01 8.237287210142947291e-01 1.349952049961508971e+00 -1.373732356733587401e-01 -1.485386869174674940e-01 -2.165238616856565157e-01 -2.387601761696968583e-01 -9.911316145029777647e-02 -4.745599240715113742e-01
-2.609068947227808910e-01 -8.797871612893058968e-01 1.120061985816015238e+00 1.691297787928731644e+00 -1.703348297352454688e-01 -7.382459104707317366e-02 -2.424550587471590024e-01 -4.232198830349123697e-01 -5.239145984138534468e-02 -6.644397244286909254e-01
-1.095242418675610591e-01 -1.266623819501442316e+00 1.363559087377851364e+00 1.938555980657461708e+00 -3.380771332877783864e-01 9.683874024176235273e-02 -2.662026077814523273e-01 -6.735871523193077692e-01 1.267758093951143195e-01 -8.224982138988885527e-01
1.680280143493912137e-01 -1.535130382777011082e+00 1.452443337850458427e+00 2.003330300020605748e+00 -6.627945351245932981e-01 2.705832488514866019e-01 -2.018436365677033772e-01 -1.030944283731566991e+00 4.666406178838205521e-01 -8.670249006415534643e-01
4.496561412826374227e-01 -1.551405086387915855e+00 1.386896924131464370e+00 1.898868641973514348e+00 -1.048148811936772784e+00 3.580364916079610826e-01 -1.323701785546336183e-02 -1.437098656244825357e+00 8.117626768943241311e-01 -8.119216628505501188e-01
7.030945112671387331e-01 -1.220714903983817434e+00 1.193476894984998316e+00 1.711345024917235724e+00 -1.519473337983173522e+00 4.228544081258960863e-01 1.135365920726776612e-01 -1.850865269033297178e+00 1.114350499635885949e+00 -5.999006142699533362e-01
8.899951422451094496e-01 -7.601642434170061691e-01 1.058840986890972280e+00 1.507347683131036842e+00 -1.960198650113883279e+00 4.656930085233839112e-01 1.245975902817510472e-01 -2.125266101272848651e+00 1.244661050717751571e+00 -3.872956086003916387e-01
1.088959780746546979e+00 -4.314019822082371114e-01 1.034173737580634800e+00 1.313391839309398845e+00 -2.064590035058834427e+00 4.700872437192349373e-01 -7.969328782709468595e-02 -2.271175874762321634e+00 1.278871295510952910e+00 -2.858663556475233847e-01
1.277723390731308584e+00 -3.287755137006374007e-01 1.064509521475696108e+00 1.138506619833122624e+00 -1.796114663527247801e+00 5.206210352690219256e-01 -5.146391586293772580e-01 -2.243788169099177221e+00 1.240800004320370409e+00 -3.057655156918424599e-01
1.428194761126950096e+00 -3.775133903985523065e-01 1.009761355893277424e+00 8.468266741710839263e-01 -1.236048585727808513e+00 6.498257181404263338e-01 -9.625428394982167291e-01 -2.070319948402073784e+00 1.257332099979973528e+00 -5.018060088948916864e-01
1.445522753109054648e+00 -4.391296348647009684e-01 8.020786077177841644e-01 5.103639223201678066e-01 -5.957005182400751941e-01 8.195969057664985735e-01 -1.169028203013995348e+00 -1.786303958920882007e+00 1.185742246575276715e+00 -7.202952142263389090e-01
1.259974817416672721e+00 -5.186426875309324558e-01 4.962194424595380293e-01 2.114099562625285089e-01 -6.912531300633940889e-02 9.970750744740064508e-01 -1.123643597326836163e+00 -1.404148498573175807e+00 1.030031872694106898e+00 -8.394212413388950633e-01
9.738629085653810469e-01 -5.439068486025981919e-01 2.056385522541041289e-01 -5.552340653515288466e-02 2.338156948546835090e-01 1.107068694626088590e+00 -9.085663268270905979e-01 -1.042481986138053873e+00 8.339536836154550770e-01 -7.605450446471497816e-01
5.825985554732531213e-01 -4.910575756331539976e-01 -5.089907686201252356e-03 -1.819428404234784413e-01 3.762671064256665754e-01 1.148221157487984811e+00 -6.396682584002234551e-01 -7.136857255529504007e-01 5.905929192372605385e-01 -6.059675976947688225e-01
2.398011932824218873e-01 -3.777955728292701210e-01 -1.557499063507536696e-01 -2.334714361128664428e-01 4.053892859969785989e-01 1.069313008782370122e+00 -3.928780493602458956e-01 -4.526353286481072935e-01 3.830808789344882226e-01 -4.157941969166958907e-01
2.693532706833296972e-02 -2.271989768499489970e-01 -2.102201811337326143e-01 -1.687846836710419074e-01 2.865546654410282001e-01 8.597471609196619680e-01 -2.312680857253149314e-01 -2.552173331494760333e-01 2.219201837921770670e-01 -2.677459801194453370e-01
1.089326299590655245e-02 -9.642822871168725551e-02 -1.489994269547865735e-01 -6.083945852516134400e-02 9.705627940452760116e-02 5.223910644124213354e-01 -1.261554515089276796e-01 -1.336880587571527002e-01 1.238322387378032186e-01 -1.414421619168152178e-01
9.105178147658879451e-02 -1.276134856012173767e-02 -8.892073403995835734e-02 3.057122176912969308e-02 -3.507011288924135467e-02 1.369263435143938390e-01 -4.663758597353193092e-02 -5.562024116493477499e-02 8.128083752272878548e-02 -6.505633877154490263e-02
1.343384587981386602e-01 4.423130028633887045e-02 -6.545050064414915936e-02 7.641707042855706844e-02 -4.679146871536353502e-02 -8.569776278347024379e-02 -1.502946040938268023e-02 -2.892992038986538436e-02 5.768034488310887914e-02 -2.343197999361240277e-02
1.433837601630396918e-01 4.594810065956583811e-02 -5.583063023684051857e-02 8.960199303649628300e-02 -4.789031425030619571e-02 -1.316828693056919797e-01 -4.358426381995059162e-03 -9.928751631421688789e-03 4.926494686104623127e-02 -2.129507541479662425e-02
1.381946661332408566e-01 4.901919237624127734e-02 -5.193883899768906437e-02 8.612266661417643243e-02 -4.250348561603187192e-02 -1.410991340150292983e-01 -1.052140665495691907e-02 -1.702823714871373392e-02 5.519833306178106164e-02 -1.959346512661427897e-02
1.453259015775852092e-01 3.957624630126828358e-02 -5.544213030698447175e-02 8.762841100359199109e-02 -4.862642366362601026e-02 -1.402334390232679306e-01 -1.149058767329120059e-02 -8.954889300510792197e-03 5.192021579380583923e-02 -2.093937037433572790e-02
1.414860734443576240e-01 4.386656333429373583e-02 -5.661915374744237728e-02 9.350108399071833942e-02 -4.363210300608039161e-02 -1.450481708752900667e-01 -1.051112632837175251e-02 2.024495748686427378e-03 5.077680437024732069e-02 -1.588576844165780905e-02
1.234860366560936451e-01 3.178539588652422310e-02 -6.388475286492804883e-02 1.348353506075921637e-01 -5.150759562370268302e-02 -1.498135270803772900e-01 -1.701486562365540217e-02 3.527372348059436974e-02 4.381724621344107451e-02 -3.408653053687984297e-02
9.284291452119232402e-02 -2.535099286560977064e-02 -3.489528076281151608e-02 2.563154773698729794e-01 -6.071017876343349357e-02 -1.776742131471888697e-01 -5.233963542448483858e-02 1.121771434169459986e-01 8.364456273398730018e-03 -7.580281239657114811e-02
9.645273970540234332e-03 -1.190359755978688122e-01 5.574016352777833028e-02 4.214942914577055055e-01 -7.697736895784818012e-02 -1.979463599519942774e-01 -1.164410653349197688e-01 2.304745411989269077e-01 -3.331073803889624679e-02 -1.363473869682526318e-01
-1.232206800868705099e-01 -2.711228891062494872e-01 2.483795641722268688e-01 6.920794138157518871e-01 -1.084206832313491520e-01 -2.212631896867520709e-01 -1.991575160518134768e-01 3.516369661735011531e-01 -7.707088193318327451e-02 -2.531833341746935750e-01
-2.292977094585486597e-01 -5.100585055665860512e-01 4.778107157253225212e-01 9.378425033373198882e-01 -1.051109818743863611e-01 -1.829933743563826876e-01 -2.853143748232193078e-01 4.412551592747425144e-01 -6.979745549104041102e-02 -4.146592132150684895e-01
-2.471897299118428482e-01 -8.904193725492535183e-01 6.805074678072021710e-01 1.125942000467566428e+00 -7.856592720301902588e-02 -9.132006141819604128e-02 -3.673069806630063772e-01 4.638848531655620500e-01 -1.159721256222077251e-05 -5.474530613330487183e-01
-1.052342874587959831e-01 -1.379362572635009165e+00 7.770130622688200539e-01 1.192589055548520793e+00 -6.690802818938572372e-02 5.559893483315445778e-02 -4.390263851424300312e-01 4.317583121306086125e-01 1.774660515953536688e-01 -5.977051812111625617e-01
1.379512408719606176e-01 -1.879554528005785929e+00 7.662165725483006673e-01 1.100382134875802498e+00 -2.269962526933479441e-01 2.879046619003434171e-01 -4.510648835161071846e-01 2.855054793843616601e-01 4.714810481368758022e-01 -4.378497567148563197e-01
4.287590737588675149e-01 -2.221117841487533884e+00 6.389743304736018592e-01 8.020039572591989296e-01 -5.774267899743427135e-01 4.967954263847306207e-01 -3.148277196216407448e-01 3.647920394039218250e-02 8.100939458855204167e-01 -5.277123483275666938e-02
6.452819821315909365e-01 -2.188634881020340206e+00 3.546650065353406100e-01 4.962459926491136764e-01 -9.967888135683504736e-01 6.076972392781015975e-01 -1.082303084711988134e-01 -2.461401558580980919e-01 9.953455661315042668e-01 4.988326937071654865e-01
7.280998128737758979e-01 -1.638150807314250557e+00 5.665139923528138277e-02 2.389269981903618389e-01 -1.522289428175578108e+00 6.411990933742325316e-01 -1.913789684849135850e-02 -4.685176825127994049e-01 9.591237172219013729e-01 1.070150890507117314e+00
7.795137380168790653e-01 -8.440633361896269227e-01 -4.815267817800653050e-02 1.425350163990813102e-01 -2.007440999941581428e+00 6.428867167728341547e-01 -1.633489230444520879e-01 -5.665528178492282851e-01 6.946944762608431301e-01 1.429379046835238753e+00
8.224224619914994872e-01 -2.656145355517415818e-01 2.228189959889578797e-02 2.847027264971192517e-01 -2.131852310661042527e+00 5.964144174436931678e-01 -6.489704518429780800e-01 -5.623522631173119013e-01 4.222834518684133731e-01 1.500526819306287063e+00
9.307344357708025040e-01 -2.038590858986255305e-01 2.472382763077669576e-01 4.645893328289385504e-01 -1.804582516692158523e+00 5.786170311096682228e-01 -1.341922319802705710e+00 -4.501107910083722019e-01 3.112842413632008753e-01 1.320159671623196918e+00
1.140457691291145048e+00 -5.074836470560221136e-01 4.984132343912455188e-01 4.825159448955435026e-01 -1.153495357509447317e+00 5.904385536332131812e-01 -1.906435915329942832e+00 -3.618802559010183550e-01 4.168790881532830062e-01 8.433450557385395729e-01
1.399431142910475101e+00 -9.252328471662284448e-01 5.105441447003771227e-01 3.117243316575056822e-01 -4.460695447356345378e-01 6.806010311411996305e-01 -2.101456689373627285e+00 -3.586389685147998718e-01 7.459672939620265453e-01 2.360783096378930024e-01
1.510979592907671920e+00 -1.157823255299774923e+00 3.723000465250173030e-01 1.148445308486122224e-01 5.082474112979536857e-02 7.936197607665442799e-01 -1.890179103810015748e+00 -3.263123284708422944e-01 8.765574757073945067e-01 -3.000814098198153479e-01
1.399849381837424689e+00 -1.177348440376928762e+00 1.656471058155603582e-01 -1.065484304335959642e-01 2.944155713998035662e-01 9.265223456501514576e-01 -1.442812687392007076e+00 -3.259896936615668261e-01 8.902080867897914640e-01 -5.589166292794740531e-01
1.022467133899360725e+00 -9.464188066656479270e-01 -2.956974096209026917e-02 -2.558714674385548782e-01 3.709732301340320504e-01 1.077310679045569763e+00 -9.962819307855347306e-01 -3.358713679153883525e-01 7.363933321005283750e-01 -5.887546546323443319e-01
5.766546954341665865e-01 -6.393887699660504298e-01 -1.720751955638535335e-01 -3.266869846595902294e-01 3.827642622317366516e-01 1.091173432967435852e+00 -6.206062628270790915e-01 -3.051463259152054075e-01 5.325429686772428228e-01 -4.681630432728051128e-01
1.673663192250839649e-01 -3.505822898311418689e-01 -2.358183498074819251e-01 -2.491266018418648587e-01 2.440499926626112370e-01 1.004411643669669063e+00 -3.455248753867787292e-01 -2.173004858931476269e-01 3.513422087187265119e-01 -3.075721260858831352e-01
2.279835019637079310e-02 -1.418495582654139275e-01 -1.806345203351895357e-01 -1.046674151804159597e-01 5.022955210895019978e-02 7.005409172267107465e-01 -1.633477439088996397e-01 -1.516463550964551321e-01 1.939773526707490869e-01 -1.702052978666636907e-01
7.926916698662889171e-02 -2.812356056517166525e-02 -9.884850470925171662e-02 5.646378594587927145e-03 -3.670804633955639107e-02 2.455799633855405562e-01 -6.222765481423157136e-02 -7.601152782452690049e-02 9.554509614687264896e-02 -7.661730307400045625e-02
1.324971811382074094e-01 3.486861084615673623e-02 -7.063061041709628451e-02 7.683088426763960699e-02 -4.225225582466334007e-02 -6.484772134966064472e-02 -2.032317878700633240e-02 -2.810240030396993563e-02 6.560564230037611855e-02 -2.712561608008457956e-02
1.430031563815062357e-01 4.207306240738028363e-02 -5.683903721973505851e-02 9.204870299930147104e-02 -4.396009409406513579e-02 -1.392929408580402817e-01 -9.268977013288630037e-03 -1.856754913544536589e-02 4.777039879444373166e-02 -1.845874367909481131e-02
1.463141245405815138e-01 4.599345002636102964e-02 -5.906220711123254252e-02 8.428840315723477861e-02 -4.527111623451766237e-02 -1.416525729852733950e-01 -4.272742105809367724e-03 -8.410703726439094918e-03 4.908689969714514351e-02 -1.581598333998174982e-02
1.449149190443968505e-01 4.572968337167662711e-02 -5.441478230832726137e-02 8.548130573338785787e-02 -4.525693025952334803e-02 -1.374510278275274389e-01 -1.188694839831922791e-02 -9.501608939026987390e-04 5.092692181273431734e-02 -1.910613876449382409e-02
1.323534475580922798e-01 3.597276816226827045e-02 -5.584517702548234819e-02 8.774021451291166840e-02 -5.451174665030824457e-02 -1.418087696316771840e-01 -1.773371061490033179e-02 4.788063221918828494e-02 4.227319460354512365e-02 -2.507005237310630866e-02
1.061638537514403569e-01 1.193095813744693943e-02 -6.529092381482412555e-02 1.254611511141522917e-01 -6.738605288231376556e-02 -1.590990343911497518e-01 -4.275230105265222236e-02 1.508878386082296852e-01 3.427121535682642328e-02 -3.934066355967569262e-02
5.700098845070526721e-02 -5.782011598920225315e-02 -4.742745212524605847e-02 2.415013083378595160e-01 -7.533445641501523848e-02 -1.943535299269114058e-01 -9.221443440932235169e-02 3.300444033390271259e-01 -1.525733017072421899e-02 -8.744242875558659589e-02
-4.325434460245138751e-02 -1.839567176221074962e-01 3.986388423079748750e-02 3.413869553531052592e-01 -1.009851316214097766e-01 -2.100846287838503690e-01 -1.768476979154538775e-01 6.000248970727033448e-01 -4.274632759071483878e-02 -1.713352890257956174e-01
-1.499144751709839407e-01 -3.741844928513388679e-01 1.978523772084577192e-01 4.607237962782513296e-01 -1.340438024309439924e-01 -2.320808973564286448e-01 -2.705907096065287565e-01 8.924686049105082786e-01 -6.284424875642585784e-02 -2.672112784211946312e-01
-1.756510084580823194e-01 -6.911316666161549938e-01 2.784763372488138211e-01 4.564735601212406291e-01 -6.905341029296392652e-02 -1.848810832408505633e-01 -3.569163613289016435e-01 1.182337765419578357e+00 -2.127447679806651268e-02 -3.656340819237899886e-01
-6.938112270806125192e-02 -1.173675742220400942e+00 2.635352482818106856e-01 3.176997715488625862e-01 9.196042216289111379e-03 -4.363290036425798019e-02 -4.489576344769726224e-01 1.398346915091742249e+00 1.179607601468522921e-01 -3.153682601239718997e-01
1.756924620283881744e-01 -1.774476281838087477e+00 9.712696250815917864e-02 4.522227996709279885e-02 8.786112365025623705e-02 1.493810148866492604e-01 -5.176834806628261010e-01 1.505297195220823170e+00 3.565096028067860079e-01 -7.578731842274415154e-02
4.548317482153950153e-01 -2.337839493730081930e+00 -9.755805603567230255e-02 -3.784984794086725945e-01 -5.985625096464543965e-02 3.730829955251139807e-01 -4.792384886418453172e-01 1.516404608333493886e+00 6.259267193941981944e-01 4.237604268397922591e-01
7.286490948357117192e-01 -2.670195385507301733e+00 -3.907829375115203230e-01 -8.091864606726190123e-01 -3.347727991214017873e-01 5.889542273617683898e-01 -2.146548065773559166e-01 1.410361849181386518e+00 7.481115861960336844e-01 9.915784865606118714e-01
8.445648749219033524e-01 -2.477193011777260701e+00 -6.474472344496771115e-01 -1.099974997833403467e+00 -7.335510644146955306e-01 6.904034416398130425e-01 6.989287111097876315e-02 1.329204165208393684e+00 6.631934705734972013e-01 1.407109929435154116e+00
7.826911877351540037e-01 -1.517684880617309995e+00 -8.258862813271031778e-01 -1.161983067858501029e+00 -1.234715515853460177e+00 6.567374966538537251e-01 1.573610668467645135e-01 1.374353698573274940e+00 3.098833778187395915e-01 1.512711937867833534e+00
6.856845357998424539e-01 -2.099923863829556148e-01 -8.084625259012099274e-01 -9.618280215035127645e-01 -1.701453314128538397e+00 6.014393722069943937e-01 -1.792795594991529462e-01 1.503741621354903080e+00 -2.344826801102388725e-01 1.339719910698585759e+00
5.597174301383595063e-01 6.600544183100400808e-01 -5.774010883026985397e-01 -4.449214948250070356e-01 -1.822720101006722881e+00 4.647568251346045898e-01 -9.271704314104423084e-01 1.582769795147946024e+00 -6.188569567074410083e-01 1.176129347234703193e+00
4.564919602296722001e-01 4.802372107882194596e-01 -1.583107303921381104e-01 5.104303858621098144e-02 -1.450218284224424226e+00 2.934946319784952906e-01 -1.675061414798268755e+00 1.604736015301715168e+00 -6.853944750036219391e-01 1.129993423322839696e+00
5.280599057554692388e-01 -3.112555116539206801e-01 2.854409929646270494e-01 2.893276781598822511e-01 -7.225759402278905119e-01 1.873445201009094063e-01 -2.269395439275930570e+00 1.558943714024989990e+00 -4.393392803779838096e-01 9.295665895117340982e-01
9.217635268752556454e-01 -1.175787295728720538e+00 4.412566955893402199e-01 2.344034145224906662e-01 -6.658256416494082175e-02 1.491628119506640260e-01 -2.430904881938900086e+00 1.262178873609144159e+00 1.283424263583644309e-01 5.838767338870031187e-01
1.456726807015607417e+00 -1.690193144843837425e+00 3.644468602111020639e-01 -1.702477293082016105e-02 2.943437668956274678e-01 2.032509797175167943e-01 -2.195125133703010434e+00 8.983305942210106920e-01 6.843152623651765909e-01 5.513112702580885011e-02
1.717471020853078567e+00 -1.661472501139090285e+00 1.740773155073296052e-01 -2.584270251520085493e-01 3.838847921254078255e-01 3.848452297346252049e-01 -1.707555051725951678e+00 5.042138193916517741e-01 8.462239347676586698e-01 -3.344862324894157801e-01
1.524163802222935127e+00 -1.270579398420111694e+00 -5.502863903504334742e-02 -4.020261351231707025e-01 3.317591045417707663e-01 6.240300435114334299e-01 -1.154686234440533310e+00 1.466448631195446106e-01 8.007070819643525850e-01 -4.937497268713277876e-01
1.030223409825725911e+00 -7.858396308642071615e-01 -2.026174082743439075e-01 -3.974001769202676337e-01 2.382806250315920304e-01 7.523066867356448251e-01 -7.108772921270906098e-01 -8.431023090159028843e-02 6.699889467912735208e-01 -4.543837933998456369e-01
4.491945017806018847e-01 -4.046814603073556893e-01 -2.484314933287627980e-01 -2.818071595149884701e-01 8.006322352510183982e-02 8.003863286033102709e-01 -3.699922060521583234e-01 -1.471826793209830564e-01 4.678691228242681244e-01 -3.044290665539345908e-01
1.106579581437051041e-01 -1.598427321704065651e-01 -1.887253752120044981e-01 -1.018320449136141670e-01 -3.113767356916085152e-02 6.239811111111379649e-01 -1.672579084043296638e-01 -1.211083964136007440e-01 2.529149669192182204e-01 -1.628596799833847975e-01
8.710833656752182963e-02 -3.272379285579910674e-02 -1.000917583828381252e-01 2.157397763567804605e-02 -6.472548887326341760e-02 2.400362216316120623e-01 -6.611030803225356745e-02 -7.426526835466709664e-02 1.193724655162671788e-01 -7.679047834315673449e-02
1.373599442091077982e-01 2.983397661598820652e-02 -6.240866793974785692e-02 7.930334101362322696e-02 -4.433321314644021044e-02 -6.991912402333431975e-02 -2.011026139209732069e-02 -3.123813019683419068e-02 6.421905609269620840e-02 -3.095229958483834004e-02
1.439374452734354937e-01 4.491643496372948324e-02 -5.757110812991694804e-02 9.230031013253857386e-02 -3.909997773112873498e-02 -1.363091392662845736e-01 -5.541621274477571794e-03 -1.573356746256783165e-02 5.098940488686867084e-02 -2.099890489902368068e-02
1.400772814662120114e-01 4.056168094650877687e-02 -5.072409279437036650e-02 9.304508619817092319e-02 -4.341359642702603133e-02 -1.415595590548213434e-01 -2.645041827185798042e-03 -1.575651149254144942e-02 5.113820883693260405e-02 -2.209370576944110279e-02
1.355959449738294853e-01 4.371499143518019215e-02 -5.492400177726628613e-02 8.900531537495665058e-02 -3.941613574043436458e-02 -1.373226289292988900e-01 -7.096269355106490755e-03 -6.114260643937054120e-05 5.289416278735033228e-02 -2.154332687643173427e-02
1.297849556123244485e-01 3.266336288215360845e-02 -6.276706850152893868e-02 8.505411413664656917e-02 -5.377761834413787717e-02 -1.440705177114496305e-01 -1.647487142495706811e-02 7.686602537014486369e-02 3.321078159194731927e-02 -2.423287531972542069e-02
9.860679524836891974e-02 1.181428784076096229e-02 -7.094378632559934783e-02 1.042546088341113758e-01 -7.200379374841417435e-02 -1.601290131526016125e-01 -4.919216711570272016e-02 2.346141708866769648e-01 1.634454539576061377e-02 -5.151577764363540063e-02
3.960913297901875324e-02 -6.399917865646216619e-02 -7.327106043860343032e-02 1.531447182879998870e-01 -8.020773719517128308e-02 -2.020115459612940034e-01 -1.119267980432818582e-01 4.840034226349909652e-01 -1.512493195797022169e-02 -9.149672395477276288e-02
-5.329676013382204924e-02 -2.001136465332347125e-01 -9.562034952889061565e-03 1.640426549580951410e-01 -8.969103147166479495e-02 -2.222665560887389091e-01 -2.021572318096672705e-01 8.437682525444394344e-01 -3.927417288563002373e-02 -1.388672731930950255e-01
-8.948378760454685221e-02 -4.298335491888694015e-01 4.688006191351361956e-02 1.290047008404476003e-01 -9.281389946359512588e-02 -2.167249517329642716e-01 -2.869514956787826976e-01 1.203077637349440066e+00 -3.027043299482245695e-02 -1.757893329592332687e-01
3.633012725605323789e-02 -8.084733980499043682e-01 -4.740594002923394917e-02 -1.240462072336219468e-01 1.900876323867365866e-02 -1.401768496214554904e-01 -3.777550775876905576e-01 1.558731705001842327e+00 3.698347437781721730e-02 -1.126087043482079664e-01
2.701088895873435258e-01 -1.379171433178074668e+00 -2.901268592058674489e-01 -5.308186942559122157e-01 1.835613180234451358e-01 4.527117210705555034e-02 -4.347116604896034686e-01 1.813609297304463297e+00 2.148671798088060969e-01 1.641080079262369207e-01
6.131988390387643761e-01 -2.022483948584727909e+00 -6.025834289386461373e-01 -1.062345187882019149e+00 3.079225278667656052e-01 2.619847024223836973e-01 -4.597702982329616717e-01 1.910997791271219270e+00 4.407550693745184711e-01 6.705188440262720428e-01
8.921604009311177030e-01 -2.584154612078523261e+00 -8.717971675877356219e-01 -1.539117000805269697e+00 2.361073466306835844e-01 5.231616316033926850e-01 -2.464850979389349717e-01 1.847217074244689616e+00 6.190913699643540991e-01 1.189868895251443348e+00
1.047932620606829790e+00 -2.790288773717023663e+00 -1.142873124633395410e+00 -1.778722620302550350e+00 3.137731313361507429e-02 8.022435687304215746e-01 1.421261253529547963e-01 1.767079887753736367e+00 5.920583157003650454e-01 1.376434267731339034e+00
1.049354179135528309e+00 -2.261983336792495081e+00 -1.269637920129122799e+00 -1.768296226595214238e+00 -3.020616418647502632e-01 8.323437745772792606e-01 5.378908325923159595e-01 1.771069738610901334e+00 3.583089673286931065e-01 1.108571403637899744e+00
8.718853087735505270e-01 -8.157481604916277940e-01 -1.205820804520277623e+00 -1.433664083701127856e+00 -8.059451863493176660e-01 7.161727504102356479e-01 4.990434998907050113e-01 1.836762265089057378e+00 -1.427851807675288021e-01 5.303412721764955151e-01
5.108256396714625502e-01 9.515386348008044726e-01 -1.015407267743332564e+00 -7.827485492090704433e-01 -1.300564964814234781e+00 5.091475941697617413e-01 -1.283103625144006166e-01 1.949668311223994532e+00 -7.039642379826064333e-01 5.825340742948369177e-02
1.166236172200762616e-01 1.894720268705812449e+00 -6.484845402388139668e-01 4.691928085008428839e-03 -1.398271896151160654e+00 1.919320293146105916e-01 -9.800988746515137962e-01 2.005178262076199314e+00 -1.044380000886931281e+00 -7.245340092023082323e-02
-2.442376003280135599e-01 1.268047275955747288e+00 -1.242107927594927885e-01 5.497660369636401256e-01 -9.282925429310406873e-01 -1.117779424914807640e-01 -1.733951764271316920e+00 2.113495869365562108e+00 -9.213413291696789242e-01 1.904589807768412024e-01
-3.273761591910950286e-01 -1.749394648050410783e-01 3.930415686781726370e-01 6.832718928439782680e-01 -1.162869372059842782e-01 -3.563611808492792021e-01 -2.229136260803432190e+00 2.134561442936869557e+00 -5.325161997709649819e-01 5.704347993748932755e-01
1.808586993239066354e-01 -1.419595196191123065e+00 5.930455277287014493e-01 3.496860895080212694e-01 4.866626102454680858e-01 -4.891641862572518873e-01 -2.332497977131418931e+00 1.933214501701958854e+00 9.269564822898604395e-02 6.615651909087654214e-01
1.097962599418154994e+00 -2.006534669091339929e+00 4.797612956871558088e-01 -1.522218673416763368e-01 6.069029606004736621e-01 -4.629925066153640079e-01 -2.085835895660599348e+00 1.518424387561355005e+00 7.082617653497169652e-01 3.364080237393727857e-01
1.852049821245068895e+00 -1.886166040804821531e+00 2.350074906126879970e-01 -4.594688794093967910e-01 4.413553908143766358e-01 -2.561590714690349380e-01 -1.645427232915715354e+00 9.407750672460781782e-01 9.211421531128993756e-01 -9.176901358866861036e-02
2.008203174252573220e+00 -1.370506675011244457e+00 -3.460558578161210264e-02 -5.733553626031075989e-01 2.161989506898273905e-01 2.525266460714135214e-02 -1.087022077546922150e+00 4.037316851055770539e-01 8.222347132163315697e-01 -3.642356517916395253e-01
1.582514613716181628e+00 -8.282721411097785369e-01 -2.028870176518223767e-01 -4.583045182264855466e-01 4.697236620262368323e-02 2.534237682625633536e-01 -6.368797832876884613e-01 2.680896795287251305e-02 6.500732653178511455e-01 -3.872374489231383832e-01
8.422905114337073673e-01 -3.842014143493638345e-01 -2.545322839607628840e-01 -2.540096301982349147e-01 -5.413724393331813267e-02 3.763163031932679758e-01 -3.218931885685776262e-01 -1.147438184274193473e-01 4.758291702866471740e-01 -2.716302664792647481e-01
2.487639681761536214e-01 -1.345533374971732976e-01 -1.748078705659824594e-01 -5.775551169691840736e-02 -8.176703502175437788e-02 3.432661662346679909e-01 -1.374444052344890033e-01 -1.023639472276880458e-01 2.697685340949663169e-01 -1.362435946059060710e-01
1.081047633387583612e-01 -1.548235041076254613e-02 -9.459232672597231439e-02 4.390994849105808034e-02 -6.924640607209962828e-02 1.095577105035083348e-01 -4.626485664708715473e-02 -5.834234993284149323e-02 1.249008668611984313e-01 -6.314367269755294387e-02
1.328865361927275834e-01 3.268873558058749129e-02 -5.692310462860609988e-02 8.118687950600972369e-02 -4.521238475509951893e-02 -9.632434745218279581e-02 -1.648496553113520252e-02 -2.401418407088729348e-02 7.285210521005100470e-02 -3.448354518245056594e-02
1.431077006326788026e-01 4.549677007114630300e-02 -5.106828523503106898e-02 8.448064569104039856e-02 -4.497233821842944873e-02 -1.364036180419915256e-01 -1.181501259048218545e-02 -1.128717876797515410e-02 5.650042825000504282e-02 -1.921904146697843777e-02
1.412864269577855103e-01 4.133393228301656536e-02 -5.968435966463328524e-02 8.632740351140232027e-02 -3.823065080012290340e-02 -1.365508121019950172e-01 -9.369923908275236760e-03 -8.341778512018914460e-03 4.935259211935658780e-02 -1.965427054165146820e-02
1.348712439642615057e-01 4.670185120248031979e-02 -5.141527052387111218e-02 8.563639806190477544e-02 -4.181293257205138253e-02 -1.440371241342253694e-01 -1.296892345619430308e-02 1.206001312840798570e-04 5.020036362062400837e-02 -2.149794430046906429e-02
1.301597122719452271e-01 3.439619121362546411e-02 -6.476500091029657735e-02 7.977332715741643210e-02 -4.966713437052017177e-02 -1.467982307868277436e-01 -1.569589858989465722e-02 7.522925105989433647e-02 4.201414555364801906e-02 -2.336647422231595550e-02
9.062817663754887954e-02 7.226413133141706101e-03 -7.587054227466283329e-02 8.341050147011334903e-02 -6.712020042564800781e-02 -1.553764195256836234e-01 -4.277252003561176491e-02 2.322947204896273765e-01 1.150599241632936469e-02 -4.372870363735959637e-02
4.049792665859267005e-02 -5.218267837388952668e-02 -9.197144122081830908e-02 8.838239469473790910e-02 -6.365944066029670390e-02 -1.806302275018373538e-01 -1.016432468617525786e-01 4.848972431911818814e-01 -5.612694329263532775e-03 -5.686226092723823539e-02
2.485465343184946677e-02 -1.948326888939312662e-01 -8.473959722106895465e-02 1.604408381944836398e-02 -4.236426838846411164e-02 -2.024113009490305370e-01 -1.853711203467484636e-01 7.909760961050021910e-01 -2.571920216813789947e-02 -3.640941625672024923e-02
1.490670631934047641e-01 -4.515125670780037459e-01 -1.491585111993125046e-01 -1.756652268609462941e-01 1.538248677198058613e-02 -1.745900106679976471e-01 -2.521317028502802482e-01 1.080318868941391175e+00 -1.275915152697608412e-02 1.862120678130624318e-02
4.307391244784144479e-01 -8.669269080323036558e-01 -4.000586520002609170e-01 -5.529459956913067575e-01 2.075856531542307204e-01 -6.512415657781583933e-02 -3.240253812565211944e-01 1.305811139440990143e+00 5.453971500513770526e-02 2.500271521129837082e-01
7.614401699025713510e-01 -1.499589745476492375e+00 -7.454522902666931294e-01 -1.098518448340183307e+00 4.902925816180648266e-01 1.625360817774697542e-01 -3.407228790448622036e-01 1.416163273359188457e+00 1.831307043716622895e-01 7.326467361261339573e-01
1.077863137491069656e+00 -2.160150644456585223e+00 -1.126285916519294439e+00 -1.665378006733840843e+00 7.040807608637940085e-01 5.164789559268193608e-01 -2.272623239046531463e-01 1.314019394202056601e+00 3.684153601207421080e-01 1.257542326918344111e+00
1.213175361381284123e+00 -2.638153519429657035e+00 -1.434346810289767182e+00 -1.976833736328275748e+00 7.029313900483213917e-01 8.700798456916679635e-01 2.050694654572395026e-01 1.095790470125879157e+00 5.742187095370434591e-01 1.439392202563285705e+00
1.259932323704597623e+00 -2.645641769775353147e+00 -1.562324558178089129e+00 -1.836879056986612468e+00 4.531550241686019276e-01 1.148752821962368609e+00 7.215086069629471632e-01 9.030665543620735036e-01 6.275058352049098787e-01 9.679446141879773924e-01
1.072977413199220909e+00 -1.835534817606454094e+00 -1.460115162989208848e+00 -1.298302257953239280e+00 -4.353376248628450023e-04 1.107602229092003121e+00 1.037740960809777180e+00 8.339367870035636621e-01 4.616524404467011178e-01 1.320497717267180016e-01
6.109386710520331443e-01 1.713084135731474458e-02 -1.219486811010027205e+00 -4.734849506836982247e-01 -6.610774533443419809e-01 8.261363282155611554e-01 6.788143672112761928e-01 8.698362558153482915e-01 -3.793586412602004132e-02 -5.500771217892115317e-01
1.237519458047175828e-02 2.151991028902096481e+00 -9.203683944059281030e-01 4.228669218409652486e-01 -1.186739527975326114e+00 4.082119870269582673e-01 -2.307113346299577428e-01 8.257457985305883819e-01 -5.824080978238288520e-01 -8.522472773581282190e-01
-6.021766142673948830e-01 2.942695496242197617e+00 -4.736417301649613054e-01 1.103039026877165707e+00 -1.176498725472276741e+00 -8.127682563805227467e-02 -1.070950386289229783e+00 8.887455720618955279e-01 -7.804595935417835140e-01 -7.037258291688694989e-01
-1.078180889959949429e+00 1.596055031908664601e+00 1.124373788235696892e-01 1.371157765342149171e+00 -4.832547406686519831e-01 -4.910555282130087407e-01 -1.643790447103733676e+00 1.251243236891402155e+00 -5.217245921197648517e-01 -6.920784318136465052e-02
-1.180418938592280531e+00 -3.815749349310738614e-01 5.769947781851297863e-01 1.005412615947495869e+00 4.838372228342781578e-01 -8.427059707548348877e-01 -1.946122073441615807e+00 1.689603472423701902e+00 -4.387978485924703964e-03 6.480784680148109489e-01
-5.939619492700733971e-01 -1.799483562767505429e+00 7.565396614573941525e-01 2.502316797370647827e-01 9.591766276075222031e-01 -1.029333311977342902e+00 -1.940726564829947653e+00 1.905768894756014076e+00 5.740763148190657361e-01 9.623914942617838308e-01
6.007832175180404244e-01 -2.200214644030137556e+00 6.185542935739900550e-01 -4.189106055360756198e-01 8.266723430848561538e-01 -1.001157038194117277e+00 -1.666678782609878118e+00 1.661427111508507748e+00 9.268398023064313707e-01 7.060041817719933110e-01
1.833316328287357022e+00 -1.864100221955322212e+00 2.897584271583213966e-01 -7.196255190875584518e-01 4.050534582356671853e-01 -7.572720396369243545e-01 -1.229747231443577116e+00 9.921426887483728585e-01 9.105687186476040251e-01 1.935686777662857239e-01
2.365415304957340759e+00 -1.267753658202899869e+00 -2.253606554268954010e-02 -7.288648937111621429e-01 4.434896570274503291e-02 -4.751467261866348379e-01 -7.753553321002488730e-01 4.129593260707623559e-01 7.054231775846481201e-01 -2.163203897176063928e-01
2.113738473047856559e+00 -7.287390053110447408e-01 -2.168963405291769175e-01 -5.123449516887629285e-01 -1.228972471042803910e-01 -2.167956836448489411e-01 -4.238944419448685275e-01 4.096434389177930693e-03 4.913914770358656092e-01 -3.227306478541336898e-01
1.251535690417351354e+00 -3.037301164274457954e-01 -2.482266265650268922e-01 -2.245160138991570131e-01 -1.618373092062544982e-01 -2.347814833442055452e-02 -2.073779950269716843e-01 -1.364937653720869060e-01 3.196239934652643222e-01 -2.308930064995719511e-01
3.996712408770883296e-01 -8.085566642410259297e-02 -1.469032417056742312e-01 -1.558098201098512270e-02 -9.781133498446911712e-02 5.801561355781625212e-02 -7.682871156542904478e-02 -9.024777358039187680e-02 2.102562696273493903e-01 -1.154808954531790360e-01
1.205132592965112021e-01 8.882146863246230192e-03 -7.522775170192090577e-02 6.841487155736820924e-02 -5.186687409546553856e-02 -2.455243589772108243e-02 -2.453440059135454654e-02 -3.907231263550702688e-02 1.187200178388480021e-01 -4.512522966350125675e-02
1.323969084068031266e-01 3.837732824637368756e-02 -5.414729196502627434e-02 8.291328203218702175e-02 -4.303527841736123905e-02 -1.131594518971598823e-01 -8.306250878194582424e-03 -1.962945908528399702e-02 6.685210149763701204e-02 -2.454364959647745148e-02
1.368960016304032190e-01 4.448459893304804180e-02 -5.519159101787218802e-02 8.620176308871253801e-02 -3.910815863467892450e-02 -1.403721924460067660e-01 -1.164370918138731177e-02 -1.479430578500078204e-02 5.132776467808316395e-02 -1.451095586152497535e-02
1.449349577201557715e-01 4.130860587277164486e-02 -5.134459663664971141e-02 8.694364054885032889e-02 -4.520657145927649279e-02 -1.445557029079905520e-01 -1.148140717192509472e-02 -1.082860319334947100e-02 5.450396520493076130e-02 -1.769995574678499481e-02
1.429215385369410896e-01 4.532830816446835331e-02 -5.428649946023626771e-02 9.348238578597843629e-02 -4.145253234180135138e-02 -1.440110476117676397e-01 -4.619689422636377024e-03 2.511737366158700146e-04 4.839482085169827946e-02 -2.285067083315708500e-02
1.254571047215044810e-01 3.849789102713087330e-02 -6.340218531517800848e-02 8.864009157933398775e-02 -5.192525638184249809e-02 -1.440896052581968900e-01 -1.423674089762833571e-02 6.050836496567577744e-02 4.504625822991284445e-02 -2.708445525525876238e-02
1.022196197585680533e-01 2.336665055055256110e-02 -7.351629454378746931e-02 8.357877716740647056e-02 -5.750830868606145174e-02 -1.570618076498173643e-01 -4.587657760289546444e-02 1.744447587418833934e-01 2.363200144373487493e-02 -2.965075244534559271e-02
8.041685796056401159e-02 -3.318706277493920637e-02 -9.676526977259283790e-02 5.376180399025754647e-02 -3.926802661500271990e-02 -1.711141538935296025e-01 -8.932097352499480947e-02 3.524465405319615052e-01 -8.237065398673550781e-03 -8.035668667194535014e-03
1.629003099176070668e-01 -1.931759687846015261e-01 -1.404069256044503666e-01 -6.766134330222170479e-02 2.442424187258711993e-02 -1.771744845316502170e-01 -1.472747612616535362e-01 5.297322841350625700e-01 -1.661235976709159526e-02 8.216206289065250412e-02
4.756833629031447241e-01 -4.899240638218554378e-01 -3.241989452463462928e-01 -3.449648921667399226e-01 1.837257331105694169e-01 -1.319831073602833749e-01 -1.905395756684624686e-01 6.894168814814408686e-01 -4.571666266424746772e-02 2.353316388505213574e-01
9.192036948703922183e-01 -9.733074939753976196e-01 -6.802949344283556465e-01 -7.947104063139200925e-01 4.948040088756945343e-01 1.526227757285638937e-04 -2.555345195754958332e-01 7.673516175077990109e-01 -6.215736533257880392e-02 6.363761384879031979e-01
1.268349486620465649e+00 -1.667786212194277473e+00 -1.126657560829693816e+00 -1.372781620535985070e+00 9.020403025145733444e-01 3.415384457144668984e-01 -1.757751808544758543e-01 6.907369071407984951e-01 -2.020031712510845720e-03 1.187575074362219540e+00
1.436400323252040145e+00 -2.306176247104135157e+00 -1.529299132259978267e+00 -1.782769908694747940e+00 1.155040221569586079e+00 8.428928426867026147e-01 1.419093487285973676e-01 3.779241553782655139e-01 1.826642295101835733e-01 1.522182740547341373e+00
1.346864082674378960e+00 -2.631402025118198207e+00 -1.787719716718526808e+00 -1.686860753322411366e+00 1.086893727574846258e+00 1.348350435681874737e+00 6.964775760342556410e-01 -1.437195605193678297e-02 5.154619374696710610e-01 1.160727178541351989e+00
1.090382751558659935e+00 -2.441189768945621452e+00 -1.741278142716678579e+00 -1.008320570858045162e+00 6.104932912764506892e-01 1.594491893339075039e+00 1.219901051403597947e+00 -2.966376233361870951e-01 8.591832172580142757e-01 1.766561730414397957e-01
5.882727795048255937e-01 -1.465725321338976705e+00 -1.453507405048058088e+00 6.587286207000014882e-02 -1.408189330516299020e-01 1.439614293171097348e+00 1.191305964913980331e+00 -4.014137642888543356e-01 9.017998887383982254e-01 -6.775608528889561777e-01
-5.164067133125541803e-02 6.831446693220166733e-01 -1.145623967522090503e+00 1.089019579253565073e+00 -9.135891476303196201e-01 9.970934982406782776e-01 4.535092745584496376e-01 -4.527453512428851190e-01 4.452366210199755203e-01 -1.061068052392974748e+00
-8.314421942132176335e-01 3.079853666026711956e+00 -8.322334318432025313e-01 1.779266055678516700e+00 -1.315883506506062561e+00 3.893584793533531041e-01 -5.106595316427925413e-01 -5.756508295066274927e-01 -7.860445593863059355e-02 -1.061368426988350766e+00
-1.460915508631517978e+00 3.380424220690931403e+00 -3.142952163435325241e-01 2.025678213583880893e+00 -1.091837961182558603e+00 -1.646229340138967157e-01 -1.140556428584879711e+00 -4.108891079365644128e-01 -1.537509269603240802e-01 -6.148482294825613481e-01
-1.863000754710441464e+00 1.263216583250071468e+00 2.472904388629671435e-01 1.689481618808059915e+00 -7.443785345441455981e-02 -6.164536954360283483e-01 -1.365113659089953302e+00 2.842211602989584418e-01 2.238821326066665340e-01 2.620091388680043099e-01
-1.869881697671075704e+00 -1.087652586702856139e+00 6.445928621986275475e-01 8.253490520834024791e-01 1.020964928701673546e+00 -1.034016641457399466e+00 -1.444262446754002616e+00 1.215634715966035895e+00 6.638163774584384669e-01 1.115866384448205517e+00
-1.188254759468851507e+00 -2.242924376063635705e+00 7.916452125533679496e-01 -1.565657755695394338e-01 1.278993416389294868e+00 -1.255218718287767654e+00 -1.276028888663937710e+00 1.791219884989039945e+00 9.275177120415266652e-01 1.394948831030603964e+00
2.238924385262142935e-01 -2.257995409996288227e+00 6.532462699927172878e-01 -7.291023069428269610e-01 8.645503637255176344e-01 -1.203608698709575986e+00 -9.573019618275333542e-01 1.535260993700617638e+00 8.929193806125580446e-01 1.037672152034381012e+00
1.763913453880327609e+00 -1.697195882136645739e+00 2.735854748081104071e-01 -9.034880642095225456e-01 2.592618545480969705e-01 -9.615190841575532721e-01 -5.673760858470936475e-01 8.638743580877520367e-01 6.435794454799299569e-01 3.691636864901324810e-01
2.609189578328298342e+00 -1.088328429146699472e+00 -6.828720718269644385e-02 -7.920865461955988174e-01 -1.185783480306913523e-01 -6.908455723959409100e-01 -2.593438222346147737e-01 2.348172010571563662e-01 3.668100628464837643e-01 -1.431593937563365448e-01
2.470597633388445846e+00 -6.338048350868746850e-01 -2.566430950837500502e-01 -5.128793792673426166e-01 -2.519248576415757945e-01 -4.552686908235085705e-01 -9.043627602521137065e-02 -1.072228002347153653e-01 1.729269435707760094e-01 -2.857354003735412262e-01
1.587290178099736382e+00 -2.841583115034513884e-01 -2.486515593100981636e-01 -2.102486627342962378e-01 -2.136589891777587180e-01 -2.500476343138431368e-01 -2.554433213752887663e-02 -1.853125334183679807e-01 9.777157147541477855e-02 -2.241939206864672074e-01
5.475892458942754892e-01 -6.552382812486177988e-02 -1.260441519423109447e-01 6.615711163588306777e-03 -1.128455776276553191e-01 -1.103953320931434778e-01 -3.659739076699003446e-03 -1.015701456226164590e-01 1.249011108312012841e-01 -1.000389139106523662e-01
1.425510993899009593e-01 2.716802153260188327e-02 -6.065854016648718205e-02 7.949255114121610288e-02 -5.017479410274901241e-02 -1.070054276033535895e-01 -2.984002917592066054e-03 -2.693309517204759210e-02 8.994136271756285328e-02 -3.253213146564543079e-02
1.448980204544381978e-01 3.657555027229589251e-02 -5.673579217404715186e-02 8.317217243458728537e-02 -4.313999353332384490e-02 -1.252656054285195553e-01 -4.980365334413396766e-03 -1.790870688120400900e-02 5.933711455004344465e-02 -2.036557301874013931e-02
1.366988480382100024e-01 4.094752003996768308e-02 -5.089534924884009381e-02 8.473721266255872242e-02 -4.701952930226772909e-02 -1.405741130489492063e-01 -4.199476888179513173e-03 -1.614566225838452718e-02 4.884522750751179448e-02 -1.957559293739964679e-02
1.456691472090427542e-01 4.166139795597440659e-02 -5.411086002162671799e-02 9.446367981554469606e-02 -4.139296514155897666e-02 -1.418593772291007749e-01 -4.380380592381247912e-03 -8.646938607651925152e-03 4.941403231166550253e-02 -1.555001188846998061e-02
1.369222090406621017e-01 4.685228060831233415e-02 -5.900568985810868833e-02 8.726856839531202392e-02 -4.334185012099692202e-02 -1.433124927623307399e-01 -5.792278738029133130e-03 -6.384255246917582872e-03 5.140151306203814136e-02 -1.939411373121559951e-02
1.344283667412134176e-01 4.227967475038427181e-02 -5.425326859432213350e-02 8.628879878683191895e-02 -4.776976200075286338e-02 -1.410521492111644071e-01 -1.814535352788734790e-02 2.969422876503739761e-02 4.797965466490416303e-02 -1.820980623492837042e-02
1.198848694279947558e-01 2.522388773582315280e-02 -7.096612460312412551e-02 7.985130122974723466e-02 -4.821325911209059512e-02 -1.436900319326988862e-01 -3.502526752408803568e-02 9.734001410981925340e-02 3.424422321433420041e-02 -6.702164208975075130e-03
1.180274091096724653e-01 -1.959203145687272649e-02 -9.953605802057322038e-02 3.695284621641815176e-02 -7.648850309793056232e-03 -1.554047876186402388e-01 -7.595153272558850810e-02 1.985559679116716270e-01 1.808487542696126001e-03 4.754835197074759601e-02
3.791773484318717302e-01 -1.959735318475601951e-01 -1.899928793058858201e-01 -1.282458114748162015e-01 9.678887831386995266e-02 -1.671055205331427040e-01 -1.307302426527373329e-01 2.799758617602182698e-01 -5.623754562293847847e-02 1.606367572773749475e-01
8.920704571915597514e-01 -5.499950442977540321e-01 -4.502221575296337375e-01 -4.347274698742942811e-01 3.799021101523353816e-01 -1.118777993796901682e-01 -1.556813907159283195e-01 3.003928650373616782e-01 -1.784676159913633486e-01 3.681758330830193771e-01
1.418132582187082047e+00 -1.113743875086968149e+00 -8.715448425113586639e-01 -9.129735334347092168e-01 8.633808842896800728e-01 8.142177476217846155e-02 -1.725742231336892807e-01 2.462621796468739688e-01 -3.193396074020011244e-01 8.344934009303263123e-01
1.653827919515988620e+00 -1.829605947588994752e+00 -1.348926697180542034e+00 -1.372222711794294225e+00 1.374958610466409326e+00 5.150219361640471227e-01 3.775651261544008680e-02 -3.412065939293306045e-03 -3.534331965484154847e-01 1.362805265262260646e+00
1.583908106594996479e+00 -2.389154761278315053e+00 -1.759194637034016129e+00 -1.457557565919463505e+00 1.584119291759462422e+00 1.129240666471738486e+00 5.333381711323892382e-01 -4.702787203690945161e-01 -1.876220663661450627e-01 1.474356685280954649e+00
1.160964672168241840e+00 -2.569444731438586427e+00 -1.908759688125044152e+00 -8.387969644200813368e-01 1.229700905151668300e+00 1.747044282865298337e+00 1.165514882177843159e+00 -9.656088701733402946e-01 3.223168039677087315e-01 7.166467753235263860e-01
4.976049319404645122e-01 -2.301648603830238837e+00 -1.696896152958164761e+00 3.061131689822689794e-01 3.899720232325175617e-01 1.964286967945742868e+00 1.453991533353141463e+00 -1.224424135756627452e+00 1.005119790295376125e+00 -3.503016773695707964e-01
-2.302614050691386693e-01 -1.306991127324808710e+00 -1.331297925307491692e+00 1.535618048826249415e+00 -4.911170698376822741e-01 1.734897647860171643e+00 9.796090307039537759e-01 -1.319380666052442752e+00 1.390012784963676751e+00 -9.051198215632618727e-01
-1.042436402835424047e+00 1.201053061264295785e+00 -1.068329091941570219e+00 2.261017692021205949e+00 -1.164740877594213631e+00 1.186369475167957876e+00 1.146849775720650694e-02 -1.442571977973303499e+00 1.093847613536115926e+00 -9.899946076728869393e-01
-1.803957705576999748e+00 3.500524619355289691e+00 -7.479596165499828864e-01 2.429183723258979022e+00 -1.426595448799168331e+00 5.562832442252388931e-01 -7.556229497084179236e-01 -1.558786571013800692e+00 6.320968202863181951e-01 -7.712278762014009859e-01
-2.312152355734796050e+00 3.017422794469322156e+00 -2.670576871463372637e-01 2.143813983943602786e+00 -9.759445013488804443e-01 1.240971774282790055e-02 -9.016907043839850200e-01 -1.191389797380506765e+00 6.659479121692563064e-01 -1.338569825924826873e-01
-2.596049163534965398e+00 2.968542795636646137e-01 1.827883928225756682e-01 1.460924184000027770e+00 3.017624649360911571e-01 -4.964130780624951833e-01 -7.926707083501735029e-01 -7.710433718153288096e-02 9.240447534666769158e-01 8.369637033232223411e-01
-2.434944180067110775e+00 -2.029332467157088704e+00 5.227269634837626855e-01 4.471714985512256768e-01 1.343651651885217735e+00 -8.610260745194314724e-01 -6.341452501322660806e-01 1.160430137687914032e+00 9.286482236308601923e-01 1.592841604567201141e+00
-1.547292420227184273e+00 -2.635095103738983369e+00 6.660643596785603693e-01 -4.182364643420594108e-01 1.366725966211350451e+00 -1.056556775229332779e+00 -3.534454098257667209e-01 1.661781602137087699e+00 7.187061004238944895e-01 1.639433221351675796e+00
5.296302448398997054e-02 -2.204518889408499938e+00 5.374698701254920774e-01 -8.044684728267312845e-01 7.721510405098717111e-01 -9.975449669007551146e-01 1.574266605041890407e-02 1.253002415182999041e+00 3.845108735175838399e-01 1.039456609230506645e+00
1.746815227415631000e+00 -1.508333263648053535e+00 1.689706870321477927e-01 -8.619740073019754867e-01 1.290694319105226695e-01 -8.290149107362358993e-01 3.146898185017463767e-01 5.251145193864904526e-01 1.278003616307377410e-01 2.475996376694319934e-01
2.720206556553184107e+00 -9.807641584590592876e-01 -1.680012699393890474e-01 -7.376839556544610987e-01 -2.017767462524634181e-01 -6.553013969414649420e-01 4.038258657324798606e-01 -4.382953775827443110e-02 -6.306543885587152787e-02 -2.264172458907702246e-01
2.634776625574830611e+00 -6.014432646790097703e-01 -3.113778049552931027e-01 -4.930219557143104003e-01 -2.793829323751303995e-01 -4.800542172057196688e-01 2.920004611252239868e-01 -2.674414372738863621e-01 -1.352691129646063639e-01 -3.231614841805988680e-01
1.779294835545013553e+00 -3.150961714327204510e-01 -2.618747508260529377e-01 -2.256593562526521268e-01 -2.248892005926759197e-01 -3.232516304150058195e-01 1.541050353047720145e-01 -2.297385841904120152e-01 -6.636066255390768442e-02 -2.379981560559460696e-01
6.640300374333968358e-01 -7.683145050558176647e-02 -1.199497386675143357e-01 -6.145586914142292002e-03 -1.009985658053497853e-01 -1.977625921178396695e-01 8.355002198185290663e-02 -1.081351020745094649e-01 3.679314883905400457e-02 -1.129854173103443798e-01
1.505459377115214992e-01 2.538227438289761273e-02 -5.159533780793845031e-02 7.785942812694696125e-02 -4.524146342697017015e-02 -1.471170411212946727e-01 1.152977985618149591e-02 -2.651496125696445674e-02 7.211007176716344169e-02 -2.896753237984455234e-02
1.366961594775156497e-01 4.124578008490674408e-02 -5.380274507245155768e-02 8.295816496713892541e-02 -3.834380935068357199e-02 -1.428379587793212335e-01 -1.034935083865795059e-02 -2.046241230087808213e-02 5.942293373278086793e-02 -1.768694193571960713e-02
1.365875973125452170e-01 4.127922452516170210e-02 -5.306254973028470823e-02 8.598451250018830649e-02 -4.226178454780523536e-02 -1.430929299164901136e-01 -6.938250583104345164e-03 -1.039095783349798865e-02 4.948257886714569481e-02 -1.577108078812891959e-02
1.413259402693345101e-01 4.048925357411736758e-02 -5.612852834524063167e-02 9.274988987143528707e-02 -3.829882956166433261e-02 -1.367720670759102752e-01 -1.041268638796986022e-02 -1.537933080315962049e-02 5.399053582620721298e-02 -1.709116494520562801e-02
1.449471700562536824e-01 4.700642972819733811e-02 -5.905719346146300064e-02 8.747842949629748566e-02 -4.316709708620013186e-02 -1.360223309850573659e-01 -3.428190189505630169e-03 -1.216705579884484398e-02 4.532470017156974701e-02 -1.878307437813695954e-02
1.379839193915595452e-01 4.565991003070696275e-02 -5.750663961346905162e-02 8.526706962699286130e-02 -4.477630983683841132e-02 -1.407259667153236138e-01 -1.338816325749231546e-02 4.940413877872198815e-03 4.678867672360348395e-02 -1.638387922183602921e-02
1.249270619787505310e-01 3.461610846049383017e-02 -6.376610191101236835e-02 7.968572458955751336e-02 -4.138651407693647727e-02 -1.419520726531001420e-01 -2.174918561791754773e-02 5.183082751838957725e-02 3.660021619633669482e-02 2.878401267518983144e-03
1.727419420459858079e-01 -2.516922608310441165e-02 -1.073020568404404740e-01 2.433491928770997390e-02 2.773626980580265466e-02 -1.578408133575065209e-01 -7.395506853542029024e-02 1.031189119728750103e-01 1.421498136149566653e-03 7.347580403742896837e-02
6.456192489678973523e-01 -2.460589711029508575e-01 -2.271002209019617191e-01 -1.617883328422558831e-01 2.053675396951846199e-01 -1.749367058528302765e-01 -1.415034324139187727e-01 9.657786318660814551e-02 -1.292495128878863586e-01 1.850556949529149342e-01
1.313962464035022926e+00 -6.471488535446140444e-01 -5.209235841452115601e-01 -5.004910922545459107e-01 6.460451402865943216e-01 -1.340613203300108636e-01 -1.509652339593437198e-01 7.811235077637309482e-03 -3.553434085372741413e-01 3.973482934687307955e-01
1.865861113943633187e+00 -1.242215034751779745e+00 -9.294315492088147668e-01 -9.591007852381903120e-01 1.290037618115599471e+00 5.179625832045035849e-02 -5.551745533861638521e-02 -2.114418222251790991e-01 -6.231591106884877274e-01 8.515665748923877398e-01
1.902489999090100081e+00 -1.927022885214936476e+00 -1.365041224613709137e+00 -1.254983735896407326e+00 1.849046487374988335e+00 4.900983330433071883e-01 3.478892416229143469e-01 -5.879811572698253608e-01 -7.822866254967376642e-01 1.358552269531419610e+00
1.510831851453282360e+00 -2.414754185063695768e+00 -1.678916425140996482e+00 -1.041297988508544936e+00 1.938986554412100549e+00 1.192208319993217192e+00 9.530200672720027244e-01 -1.099355810018483703e+00 -6.476307625991546413e-01 1.326607392278808639e+00
6.724757980593059070e-01 -2.528158579182472110e+00 -1.639311023329789618e+00 -1.051242748493824153e-01 1.359433217603830180e+00 1.804880943915267988e+00 1.463925392272549919e+00 -1.577057518805240477e+00 -2.243322694120929855e-03 5.917960647247312300e-01
-3.046048894578418098e-01 -2.275934042522893552e+00 -1.303700994210227782e+00 1.147027654051081536e+00 4.044381487089165894e-01 1.975321500245395878e+00 1.360058346521917594e+00 -1.781747016724692045e+00 9.984772921035600657e-01 -1.505770801532989034e-01
-1.182408761676904563e+00 -1.197344114590670694e+00 -9.622526348554241160e-01 2.083045693873389226e+00 -4.319379521932723565e-01 1.714797962823375821e+00 5.368362720540086341e-01 -1.860306708598303604e+00 1.733395115581902735e+00 -3.764700689637912046e-01
-2.042259438077157263e+00 1.654949637739340451e+00 -7.947103817139646864e-01 2.206840865019422893e+00 -9.953857974372132267e-01 1.147691808043221906e+00 -3.588962803769399357e-01 -2.093674826337296402e+00 1.697087036162744145e+00 -3.783631276448132796e-01
-2.675238481136017477e+00 3.312237958292305606e+00 -5.443305342576916228e-01 1.889641398121112648e+00 -1.121369161883896792e+00 5.849376860106091369e-01 -5.614873431165225970e-01 -2.138450263891495062e+00 1.381876885866179183e+00 -7.735538137945124904e-02
-3.082139507840857107e+00 2.210844130821446818e+00 -2.298572557800108995e-01 1.393278441339240725e+00 -4.704558531400528376e-01 5.521986923961483967e-02 -2.832696569965336697e-01 -1.412549735239659210e+00 1.333812165980690079e+00 5.395135748836189515e-01
-3.150008088527457950e+00 -9.348611644003784749e-01 1.587794651101463450e-01 8.798746982155066787e-01 8.457833071102925926e-01 -3.314241729863180996e-01 -8.295903640914231714e-03 8.713963429749195522e-02 1.121106264561079424e+00 1.371639410555052674e+00
-2.769725063766586448e+00 -2.830501655636365577e+00 4.095336910612836778e-01 2.744006488383487485e-01 1.607667601075835950e+00 -5.229180142557317001e-01 2.348419817230210649e-01 1.253148995909674213e+00 5.182715063652697518e-01 1.876427298065949101e+00
-1.626651839351141771e+00 -2.825368703894808320e+00 4.484822653236978374e-01 -1.890072175504555752e-01 1.392021582248001321e+00 -5.723501224425038281e-01 5.062944880180463292e-01 1.407254124996271560e+00 -4.879418918495481705e-02 1.556804370223610290e+00
8.248794761172675849e-02 -2.105026375494878810e+00 2.792018727733461825e-01 -4.287520555416828860e-01 7.626353745054498257e-01 -5.622617722045183397e-01 8.465870531453290049e-01 8.098091937682896368e-01 -3.420732038817581033e-01 7.063769549866351083e-01
1.782044102985293144e+00 -1.407702842448848912e+00 -4.359973314789545445e-02 -5.619743204437490647e-01 1.788334403610363776e-01 -5.301284768068643682e-01 1.019984546510217971e+00 9.971566239959782363e-02 -4.063869686688945104e-01 -8.271384627238831388e-02
2.733013141563376713e+00 -9.571551685897368156e-01 -3.115251287711785499e-01 -5.791817136258744503e-01 -1.185791894402106750e-01 -5.201177587456848883e-01 9.256981415843068550e-01 -3.116135581216364914e-01 -4.256759537605017685e-01 -3.928602583722395902e-01
2.602728330622436470e+00 -6.296716981379836264e-01 -3.655322270112293936e-01 -4.529676432457681590e-01 -1.917237535395751313e-01 -4.398707598510472327e-01 6.285617860440481097e-01 -3.671405257735310679e-01 -3.319012125484148701e-01 -4.080542870865226379e-01
1.783857022680957805e+00 -3.430215666906567540e-01 -2.680310334034465281e-01 -2.441139369308549245e-01 -1.722143111279708094e-01 -3.342499731378580918e-01 3.452951650587703369e-01 -2.646589035544850699e-01 -1.756974630116173719e-01 -2.763472113810296893e-01
7.103979224395730041e-01 -1.014476664605643980e-01 -1.187738894796428191e-01 -3.179791279269863352e-02 -8.195576405021218203e-02 -2.142861720796021829e-01 1.749307731908021357e-01 -1.140110779199226682e-01 -3.238236699256755169e-02 -1.346302607249624528e-01
1.498488214301393062e-01 2.895981820561301101e-02 -3.846567499322367523e-02 7.973242224157081615e-02 -3.789006744424011641e-02 -1.558728643133787117e-01 2.649839481884824072e-02 -2.916840404307413995e-02 5.520524540809763903e-02 -3.525371249016132774e-02
1.419468409431672018e-01 3.840741440624980546e-02 -4.939835311926835809e-02 8.625775265749946463e-02 -4.259110734027019701e-02 -1.437069980851889694e-01 -6.281167055409865758e-03 -1.902559222323322446e-02 5.583805609541479809e-02 -2.534121461478582027e-02
