4.830108360968194461e+02
-5.165155942369879085e+02
1.041973524040325572e+02
-5.641260431750725246e+01
2.796567483825722888e+02
-5.279968968923913764e+01
-8.951094347638638737e+01
1.576356485805379180e+02
-3.089430323324423284e+02
3.268942996027556802e+01
-1.642510816567097010e+01
2.970600534301362572e+01
5.181531364258647443e+01
1.907174457714118034e+02
9.145162271867044979e+01
-1.460778076580578215e+02
-1.787051027936067626e+01
6.328195692704277775e+01
-1.305581191047567984e+02
-4.566882045847987115e+01
8.061927001090971601e+00
-1.266763524184283227e+02
-9.636159366947229898e+01
-7.832429350952908464e+01
1.249465011093341786e+02
-1.216988656802413304e+00
-4.218943748523842885e+01
-5.159594166481483768e+01
-6.534326453707572568e+01
1.925721451719832800e+01
-2.915751693662909716e+01
-4.071483896632717148e+01
6.319513007098407797e+01
-9.244602471547624134e+01
-1.455584308002183036e+01
-2.187680653440002398e+00
-2.841160927742064857e+01
1.308018476208981795e+01
-4.003576457076458439e+01
1.384148820732783065e+02
-7.259644065351064768e+00
-1.692650227282795905e+00
3.560073642622655132e+00
-6.699689612763853575e+01
-1.847642648106793217e+01
-1.520123550338742913e+00
6.801205325803107549e+00
-1.657922178789241840e+01
-2.278581332970810003e+00
-6.308309304379921656e+01
3.214711636976081621e+01
-9.858767994745631924e+00
1.274686786136802574e+01
-2.025101533445155866e+01
1.487885367178197882e+01
-6.119657442233939548e+01
6.223715290637000130e+00
2.175205422777568387e+01
1.049956430052715284e+01
3.167258620316815598e+00
1.729675971796650913e+01
4.401879746785878922e+01
2.455002484511678063e+01
-9.204967825136055382e+00
